salt -0.318136 -1.017334 -0.325435 -0.234739 0.052220 -0.863468 0.441630 0.216872 1.544147 0.839674 0.310424 0.406107 -0.382396 -0.112361 0.024495 0.373592 0.487619 -0.164861 -1.563079 -1.179808 1.720948 0.526974 -0.322584 -0.474786 1.201820 -0.021863 0.344748 1.081570 -0.667133 0.181183 0.389216 -0.867013 -0.384062 -1.030028 -0.156456 1.327011 1.988657 -0.837487 0.817212 0.268828 -0.641596 -0.729706 -0.684757 1.445050 -0.540046 -1.572680 -0.294395 0.258724 1.015693 -0.370795
olive_oil 0.260976 0.589965 -0.492848 -0.610960 0.404190 -1.073855 1.142890 -0.415336 0.655492 0.210743 0.942443 0.946705 -0.140172 -0.234396 0.446865 0.775873 0.683770 0.497993 -0.432933 -0.257611 1.241966 -0.427183 -0.055627 0.137422 1.256469 -0.053504 0.904272 0.635732 -0.122009 1.433358 0.014898 0.159594 1.080414 -0.238671 -0.637946 0.241101 1.706464 -0.680480 0.638837 0.351329 -1.167331 -1.352951 -0.575175 1.173321 -0.133126 -1.367484 -0.156866 0.086104 0.775258 0.537895
onions -0.145900 -0.627647 -0.387453 0.940020 0.290824 -0.739968 1.202986 -0.051623 1.892700 0.587921 0.444441 0.603715 1.174756 -0.200491 -0.028952 0.618666 1.018630 -0.315486 0.007167 -0.681686 1.005168 -0.400044 -0.770097 0.369519 1.215220 0.392205 0.506835 0.610514 0.639580 1.402043 -0.183219 -0.011554 -0.411798 0.039537 -0.263539 0.318002 1.746036 -1.726556 0.985277 1.058741 -1.429145 0.330157 -0.357751 0.725140 0.194997 -1.617823 -0.819131 0.074224 0.391357 0.107362
italian -0.121928 0.550957 -1.426527 -0.360827 0.852939 -1.016963 0.382659 1.103100 0.878678 -0.108967 0.838244 0.736785 0.007884 0.257072 -0.675759 0.491329 -0.305594 0.716453 0.543559 -1.214734 0.934220 -0.847576 0.439935 0.697423 1.388620 -1.645280 0.448409 1.063060 -0.868168 0.622142 0.712712 0.226087 1.779344 -0.543023 -0.574167 0.684877 1.861415 0.601502 -0.269600 -0.843231 -0.051602 -1.403974 0.460993 0.190717 -0.460423 -0.435899 -0.114678 -0.665819 2.381175 0.657354
water -1.452071 -1.131627 -0.899236 0.118568 0.481330 -0.632149 -0.748491 0.376507 0.563880 0.678072 0.379680 1.168166 0.426374 0.424828 0.372759 0.381882 0.265858 0.348752 -0.056836 -0.545618 0.761445 0.750768 -1.796036 0.709243 0.773476 0.157761 0.434138 1.099928 0.247669 0.585953 0.070042 -0.873525 -1.020531 -0.486953 -0.114442 1.235302 1.726695 -1.536365 0.149616 0.977638 -0.607406 -0.949619 0.237918 2.340266 -0.103987 -0.154759 -1.038559 0.378631 1.773389 0.787424
garlic -0.593973 0.407055 -0.314229 0.260580 0.187496 -1.161487 -0.025034 -0.785272 1.138372 0.783984 0.760107 0.511402 0.825775 -0.764842 0.520538 0.352085 0.238068 0.898779 0.073758 -0.206180 2.241075 -0.116719 -0.271395 0.737678 0.520209 0.688184 0.836754 1.267028 -0.286683 0.905849 -0.375402 0.560897 -0.958323 -0.492545 -0.464123 0.935689 0.631505 -0.175030 0.814808 0.886269 -1.544353 0.142786 -0.175222 1.560963 0.013051 -1.301859 -1.099222 -0.198163 0.958496 0.130165
mexican -0.169865 -0.121735 -1.374126 -1.213289 0.668953 -1.660755 0.037630 -0.087879 1.530568 0.923552 0.223823 -0.239893 -1.353676 -0.649181 -0.959681 0.045086 1.577571 -1.404109 0.032593 0.156670 0.527893 0.660606 -0.186992 -0.589180 0.091145 0.447471 0.704965 -0.037275 -0.145404 0.446287 -1.468106 -0.792119 1.219769 -0.798648 -1.160872 -0.071012 0.634189 0.186024 0.324193 1.898009 -0.533850 0.757035 0.628329 1.299824 0.664513 -1.071126 -1.132184 0.319535 1.399360 -0.539471
sugar -1.114797 -1.237929 -1.470704 0.126176 -1.398873 -1.161707 -0.819837 -0.390283 0.868923 1.176050 0.073460 0.547628 -0.010659 0.447482 -0.430945 -0.425541 -0.125684 0.323481 -0.906860 -0.672582 1.170072 0.415744 -1.692545 -0.556581 1.707627 -0.549763 0.357665 0.575537 -1.377776 -0.864609 0.285853 -0.458724 -0.840513 -1.714707 1.102332 -0.682976 0.960558 -0.575386 -0.148233 0.750197 -1.266480 -1.990865 0.279720 -0.320129 1.038930 0.002465 -0.548659 -0.635395 0.385706 0.427979
garlic_cloves 0.035705 0.226576 0.471190 -1.348009 0.353839 -0.570076 0.646671 -0.351866 1.232343 0.354915 0.475168 1.296852 -0.285921 -0.609760 0.538509 0.392035 0.672675 0.390134 -0.039002 -1.169611 0.893924 -0.001852 -0.838730 -0.069072 1.417490 -0.156547 1.301103 1.075023 0.227334 0.813804 -0.138780 -0.800503 -0.080090 -1.100216 -0.380986 -0.086395 1.329071 -1.410151 1.241152 0.496996 -0.091945 -0.821511 -0.022765 0.502259 0.048139 -1.354444 -0.293011 -0.293710 0.316458 1.084644
butter -0.763584 0.591291 -1.323776 -0.376531 -0.048014 -0.885566 0.168635 0.967093 1.003957 0.264971 0.833928 0.275563 -0.726382 -1.223122 -0.142014 1.657991 0.861950 0.125605 -0.272794 -0.711181 0.604592 -0.780812 0.251377 0.395419 0.994619 0.160001 -0.888662 -0.399232 -0.578203 0.016334 -0.426987 -0.603861 -0.503737 0.103589 1.199906 1.128269 2.128219 -0.610641 0.412557 -0.671240 -1.349308 -0.850538 0.137022 0.258882 0.233399 -0.812074 -0.198652 0.834623 1.029875 -0.028674
ground_black_pepper -0.929902 0.272293 -0.664295 -1.127775 -0.232609 -0.405531 1.208954 -0.270331 0.992031 0.165326 0.367683 0.396807 0.234425 -0.371267 0.229532 0.972262 0.840531 0.973420 -0.240603 -0.644254 1.122402 -0.730311 -0.228244 0.535409 0.316282 -0.098368 1.509586 0.420281 0.446354 0.526105 0.622852 -0.255613 -0.103476 -0.634023 -0.582077 0.194273 1.059994 -0.161515 0.402793 0.352320 -1.116237 -0.863131 -0.142297 1.087749 -0.371646 -1.552009 -0.474467 -0.165948 0.441386 1.262353
all-purpose_flour -0.505499 -0.386367 -1.198372 0.390918 0.217969 -1.040561 0.479548 0.765018 1.289856 -0.005314 0.959824 0.031059 -0.361790 -1.160730 -0.547532 1.487868 1.109993 -0.405499 -0.933909 -0.725692 0.568970 -0.233886 0.270782 -0.886224 0.702084 -0.734071 0.399083 -0.084314 -0.949234 -0.818359 0.901334 -0.745655 -0.953878 -0.399279 0.774886 0.098238 1.991572 0.005500 0.079317 -0.766910 -0.677518 -1.248122 -0.784789 0.341051 0.331463 -1.124461 -0.544517 0.399948 1.393806 0.683927
pepper -0.167245 0.148478 0.064567 -0.072095 0.066626 -1.197913 1.212755 0.142933 0.986921 1.089531 0.194878 0.135829 -0.507404 -0.321739 0.522809 0.620140 1.114541 -0.094692 0.079742 -1.088784 1.831345 -0.514957 0.040981 -0.220031 1.543389 0.750926 0.646591 1.383046 -0.156405 0.625938 0.248173 0.325836 -0.333539 -0.532969 0.008985 1.346382 1.150125 -0.658055 0.665219 -0.075092 -0.630850 -0.400300 -0.401768 0.535380 0.183450 -1.171415 -0.507923 -0.010093 0.220937 -0.979650
vegetable_oil -0.774349 -0.991057 -0.582969 0.373308 0.548332 -1.043053 0.782747 1.129996 1.075853 0.361011 0.965931 0.417917 0.358929 -0.247681 0.267981 -0.155329 0.884011 -0.823133 -0.047410 0.182539 0.305083 1.349992 -0.622822 0.043536 0.884837 0.289146 1.569484 1.169489 -0.344186 -0.294716 -0.317991 -0.104652 -1.871575 -0.335999 -0.369703 -0.203997 1.320917 -0.544488 1.253702 -0.030326 -0.348074 -0.165558 -0.570958 0.757730 0.443346 -1.407557 -1.725163 -0.842166 0.027985 0.956254
southern_us -1.923103 -1.398532 -3.201324 -0.475882 0.540447 -0.638885 0.588635 1.404804 -0.293378 -0.397787 1.004799 -1.317240 -1.008898 -1.895982 -0.200308 0.459369 0.921773 0.034305 0.445755 -0.739627 0.544634 -0.476511 -0.065639 -0.723043 0.808236 0.729070 0.378921 1.085482 0.443562 0.398057 0.414287 -0.419236 -1.217161 -1.437810 1.748613 0.943569 0.877516 -1.396496 -0.979586 0.304117 -0.369215 -0.377115 0.547040 -0.124273 -0.654671 -0.041987 0.825732 0.445094 0.298704 -0.500766
eggs -0.354506 -0.745009 -0.255818 -0.432401 -0.926373 -1.080351 0.685013 1.009778 0.903057 -0.054560 0.757865 -0.241962 0.926283 -0.874439 0.005236 1.445983 0.700976 -0.182293 0.255051 0.947927 0.675746 0.526149 -0.172762 0.004819 1.405432 0.250876 0.015667 0.817225 -1.010822 -0.157339 0.651336 -0.710533 -0.185556 -0.739706 1.633787 1.328019 1.000761 -0.033990 0.118622 -0.514991 -1.179273 -0.617699 0.286171 1.705692 1.620059 -0.416783 -0.704932 -0.445331 0.953057 -0.251842
soy_sauce 0.361479 -0.349805 0.060286 1.208314 -1.864424 -0.492396 -0.349704 0.383727 -0.096766 0.986494 -1.167113 0.435767 0.144104 -0.929779 1.253460 -0.479159 0.960711 1.245966 0.336902 -0.250806 0.209838 1.165010 -0.949902 0.448767 0.052221 0.378384 0.715219 0.556519 -0.387825 0.279082 0.141882 0.930505 -0.910217 -1.469490 0.805729 0.327208 0.899024 -0.620678 1.089711 0.367070 -1.577800 0.192769 -0.610371 1.129305 -0.343391 -0.540962 -1.676796 -1.292043 0.171761 0.745613
kosher_salt -0.933797 -0.576799 -0.493160 -1.008245 -0.176633 -0.421280 0.989361 -0.288166 0.893069 0.002601 1.219813 0.676152 -0.454219 -0.933907 0.297721 1.080055 0.219559 1.029793 0.577422 -0.053051 1.060679 -0.413028 0.124167 0.394679 -0.167695 -0.192168 1.505117 0.398755 -0.554443 0.873695 -0.175295 -0.070563 -0.979086 -1.370777 -0.764944 -0.190285 0.396852 -0.229384 -0.347660 0.791848 -0.891264 -0.244450 -0.411700 0.795356 0.886752 -1.019661 -0.609586 -0.423116 0.407220 1.071510
green_onions -1.190925 1.075900 -0.319581 0.149249 -0.245419 -1.251822 -0.584424 -0.154768 -0.039476 1.290088 0.013654 0.011001 0.543821 -0.124804 0.625763 -0.209270 1.393916 0.673002 0.736848 -0.288605 0.590143 0.464764 -0.720208 0.254127 0.139978 -0.068196 0.907766 0.238230 0.752439 1.294282 -0.639275 -0.894649 -0.918366 -0.901919 1.179828 0.564439 1.469948 0.093856 1.281479 0.404469 -0.770850 0.176078 -0.315752 1.248925 0.530709 -0.800467 -0.937604 -0.286468 -0.063168 0.506447
tomatoes -0.893924 0.002645 -0.264834 -0.678856 0.708999 -0.462505 0.871244 -1.118885 1.311503 0.356559 0.171638 0.482304 0.430880 -0.413502 -0.029750 -0.207602 0.060844 0.805764 -0.198701 -0.166406 0.796784 -0.069545 -0.328268 -0.860194 0.995625 0.553235 0.045392 0.312527 -0.080872 1.535964 -0.533225 -1.054829 0.701513 0.266280 -0.751878 1.219417 1.254190 -0.756020 0.270607 0.563145 -0.727160 0.167297 -0.315286 0.843931 -0.158271 -1.463071 -1.173791 -0.521595 0.531901 -0.120252
indian -1.033559 -1.611977 0.148909 0.091544 1.291135 1.145037 0.800630 -1.509780 1.364953 0.440677 0.329958 1.039944 -0.620294 0.580188 -0.615133 -0.261388 -0.159723 0.753802 -1.456731 -0.549001 0.787879 1.317347 -0.484648 -0.028640 0.893850 0.618938 -1.261521 -0.242984 -0.123887 -0.159080 0.033359 -0.079118 -1.006641 0.849779 -0.632165 -0.597661 0.277412 -1.174946 0.380600 -0.085618 -1.466404 -0.477355 -1.276473 0.939270 2.014831 -0.930356 -0.312177 0.388203 -0.487162 -0.260876
large_eggs -0.708139 -0.177486 -1.865089 0.024734 -0.959908 -0.513040 -0.013595 0.069371 1.047934 0.217557 0.600650 0.289942 -0.300729 -1.100436 0.009786 1.013159 0.696821 -1.125234 -0.111681 -0.050005 0.558602 -0.426124 -0.665766 -0.761998 0.394143 -0.826672 0.608405 1.294230 -0.915709 0.332060 0.434411 -1.365449 -1.034758 -0.844481 0.340012 0.450054 2.190180 0.733990 0.132228 -0.594957 0.383082 -1.533414 -0.401174 -0.190187 0.623550 -0.372338 0.308117 -0.275729 0.794540 0.819787
carrots -0.437137 -1.048208 -0.382204 0.517554 0.144990 0.130161 -0.373974 0.577515 1.224947 2.068403 -0.387140 1.112938 -0.259605 0.762803 1.085359 1.019296 -0.095803 0.715389 0.483357 -0.276889 0.492694 -0.976605 -0.506252 0.254566 0.645118 0.482124 1.442594 1.179852 -0.275012 1.036583 0.013969 0.747663 -0.234621 -0.051814 0.694740 -0.689618 1.376092 -1.309443 0.729487 -0.301378 -1.745070 -0.982804 0.156299 0.873118 -0.284201 -0.458713 -1.019775 -0.532365 0.233657 0.654116
unsalted_butter -0.320486 -0.914365 -1.518303 0.081471 -0.263779 -1.022977 0.344283 0.174812 2.233679 -0.757175 1.982281 0.311681 -0.293050 -0.687030 0.158641 0.948818 -0.168557 -0.304728 -0.751809 -0.339833 0.316547 -0.757343 -0.255424 -0.264802 -0.892432 -1.027055 0.231671 0.045134 -0.799287 -0.304928 -0.246641 -0.839340 -0.038061 -0.867278 0.754412 0.280621 1.357780 -0.489839 -0.568742 -0.778715 -0.255053 -1.167680 -0.551628 0.742613 0.057956 -0.616646 0.631039 -0.233032 0.464755 0.894771
extra-virgin_olive_oil -0.160797 -0.033932 -1.009024 -0.717424 1.127795 -0.737379 0.578916 -1.231523 1.481044 -0.003899 1.049880 0.508409 -0.101314 -0.329583 0.037835 0.916236 -0.317599 1.286850 0.063956 -0.474097 0.456320 0.043300 -0.541378 -0.200641 0.215319 -1.020998 0.969310 1.099715 -0.344200 1.907591 0.554117 -0.030370 1.547369 -0.696969 -0.977744 -0.058769 1.141636 -0.242901 -0.246457 -0.398252 -0.196292 -0.711970 -0.840721 0.855642 -0.924728 -0.710217 0.538862 -0.645717 0.548180 0.914855
ground_cumin -0.541133 -0.345793 -0.787197 -0.403223 0.915145 0.037134 1.229957 -0.735556 1.384055 0.983127 0.207865 -0.285057 -0.774758 -0.105567 0.033214 -0.105719 1.001086 -0.342322 -0.701697 0.260523 1.032313 1.017449 0.100362 -0.061194 0.135766 0.763857 0.362989 -0.289190 0.797180 1.166461 -0.453361 -0.550206 0.217183 -0.035501 -1.098787 -0.152823 0.569905 -1.121673 0.686681 1.170753 -1.363383 -0.673756 -0.109709 1.193900 1.005805 -1.046039 -0.286914 0.083970 0.764491 0.679784
chinese 0.293240 -0.090606 0.366603 1.400376 -1.314868 -1.194171 -0.856295 0.149853 -0.108506 -0.016625 -0.620797 -0.068906 -0.032494 -0.482740 0.620693 -0.547689 -0.260868 1.173843 0.899464 -0.791498 -0.121923 2.020048 -0.414811 0.659586 0.275405 -0.623155 0.874131 1.472550 -0.051652 -0.500309 0.233075 0.246038 -1.564552 -0.992194 1.261686 -0.981247 0.860440 -0.130350 0.510171 0.794691 -0.764540 -0.401463 0.458379 0.739929 0.583894 -1.573905 -1.008503 0.314519 0.823160 0.405395
french -0.664242 -0.085013 -0.374268 -0.583531 0.473658 -1.927334 0.906337 0.340588 1.768413 0.496012 1.181912 -0.572014 -0.787546 0.165173 0.698690 0.608336 -1.009563 1.232769 -0.819184 -0.739605 0.506977 -1.206748 -1.553830 -0.887915 0.283752 -0.975778 1.200167 -0.534821 -0.982207 -1.564848 0.699731 -0.695486 0.343361 1.399422 0.393071 1.079618 1.421604 -0.177108 -0.417187 -0.650216 -0.994848 -0.429636 0.334561 -0.733586 -0.488697 0.693745 -0.236880 -0.199429 0.528159 1.303834
black_pepper -0.283347 0.016015 0.220230 -0.125650 0.479685 -0.604775 0.745714 0.076975 1.351519 0.607471 0.226906 1.060431 -0.507263 -0.211576 0.715341 0.222959 0.439111 0.354009 -0.536077 -0.342025 1.006665 -0.044909 0.570333 -0.112980 0.502839 -0.209057 0.769435 0.478152 -0.180649 0.832516 0.450576 -0.924392 0.336116 -0.928972 0.907588 1.156949 0.953289 -1.579131 0.129826 0.071124 0.274305 -0.986820 -0.035715 0.669237 0.229706 -1.012951 -1.035291 -0.773448 0.704757 0.561537
milk -1.260935 -0.621601 -1.298532 -0.041430 -0.067107 -0.587671 0.687672 0.310683 0.801548 -0.206342 1.024407 -0.121063 -0.256382 -0.846056 -0.075416 1.187580 0.120073 -0.428522 0.346115 -0.294694 0.170107 -0.689460 -0.233630 -0.000708 1.123916 0.183080 -0.706088 0.562868 -0.431470 -0.754062 -0.238366 -0.811227 -0.368866 0.220349 1.240450 0.996171 1.261805 0.107092 -0.918235 -0.429180 -0.988484 -0.776892 -0.406831 0.938007 1.480394 -0.890193 -0.538742 0.847321 0.694194 -0.795284
chili_powder -0.999365 -0.204701 -0.770349 0.426114 0.849335 -0.218039 0.284851 -0.503715 1.200126 0.712575 -0.557183 0.649355 -1.091004 -0.918627 -0.834052 0.014809 1.127982 -0.402081 -0.828621 0.297548 0.776571 1.192502 0.065883 0.096828 0.416997 1.096551 -0.098842 0.291941 0.738992 0.853045 -0.435022 -0.875001 0.404318 -0.137273 -0.752728 0.407098 0.298141 -0.808304 -0.122842 1.287961 -0.892676 -0.585570 0.102767 0.303149 1.040248 -1.093569 -1.528029 -0.104247 0.256137 -0.412272
oil -0.373314 -0.809371 0.380171 1.023650 -1.252103 -0.048257 0.389532 0.409080 1.145073 0.529407 -0.714508 0.564882 0.036409 -0.951908 -0.287094 -0.120678 -0.072045 1.028364 -0.586446 -0.299870 -0.167673 0.767480 -0.487448 0.064772 1.381573 0.615825 -0.526190 0.400378 -0.364245 0.880984 0.860503 -1.235113 -0.541398 -0.219074 0.043133 0.681253 1.180853 -0.565968 -0.071917 1.132802 -1.687582 -0.592311 -0.671594 0.866395 0.610507 -0.770848 -1.040714 -0.481031 0.711460 -0.870479
red_bell_pepper -0.087557 0.553598 -1.002739 -0.034675 0.485971 -1.342262 0.398440 -0.549901 -0.366493 0.187184 0.182925 1.054756 0.146026 -0.115164 0.839716 0.130428 0.414344 1.007537 -0.343985 0.358278 0.878816 0.406628 -0.284736 -0.829525 0.708722 0.430954 1.180599 0.762771 0.395816 0.886966 -0.379826 -0.282988 -0.320342 -0.176872 0.185769 0.475012 1.261237 -0.518226 1.032283 0.622249 -0.598542 -0.594548 0.047268 0.047859 0.153738 -1.691881 -0.399609 -0.535687 0.818225 -0.047451
purple_onion -0.450127 0.126889 -0.288615 -1.147895 0.620473 -0.507959 0.692585 -1.157377 0.424995 0.384320 0.531506 0.017968 -0.802309 -0.086371 0.294272 0.127635 0.508454 1.122234 -0.858127 -0.429382 1.241700 0.440284 0.055293 -0.408446 0.536131 0.190517 1.251422 0.612909 -0.263904 1.504941 -0.398928 -0.264209 0.713220 -0.413659 -0.099631 0.118648 0.293981 -0.487287 0.265762 0.475987 -0.861301 -0.486015 -0.727027 0.438253 -0.029074 -1.096930 -0.818162 -0.712564 0.445195 -0.363119
scallions -0.341249 -0.686027 0.223689 0.771172 -0.805734 -0.747784 -0.227149 -0.427421 0.452562 0.524010 0.416350 0.964300 0.557429 -0.164193 0.478643 0.000466 0.140614 0.519650 0.584178 0.034008 0.770520 0.765019 -0.479024 -0.323013 -0.556365 0.160157 1.502818 0.875485 -0.085462 -0.063761 -0.094339 -0.077537 -1.092818 -2.177213 -0.018128 0.245604 1.056860 -0.579854 0.592722 0.680440 -0.558340 -0.440746 -0.599330 0.921509 0.251581 -0.318987 -0.919972 -1.146672 -0.695687 -0.004465
grated_parmesan_cheese -0.393504 0.848646 -1.289409 -0.149601 0.143173 -0.675910 0.669824 0.932939 0.429403 -0.527792 0.175499 0.961311 1.124858 -0.787450 -0.356751 0.895777 0.706303 0.133164 0.271771 -0.300363 1.394236 -1.226142 0.600445 0.531545 0.658652 -0.609498 -0.171642 0.709979 0.335864 0.177108 0.447467 0.010946 1.928433 -0.503482 -0.389856 0.871717 1.554287 0.437312 0.101122 -1.339851 -0.945154 -1.039633 0.601765 -0.108105 -0.322920 -0.793884 -0.210415 -1.027758 0.373733 0.593594
sesame_oil 0.449052 -0.259032 0.940585 1.045605 -1.702046 -0.592071 -0.762480 -0.319170 0.002644 0.425324 -0.766479 0.337823 0.729911 0.168479 0.767050 -0.349884 0.515651 0.861636 0.030541 -0.265061 0.268788 1.521177 -0.339729 0.753526 -0.049499 -0.208050 1.026925 0.442841 -0.204997 0.641129 0.327414 0.209119 -1.163733 -1.595013 1.359247 -0.184147 0.446594 -0.149773 1.408893 0.212632 -0.828765 -0.206823 -0.451901 0.868489 0.209385 -0.479911 -1.383460 -0.741850 0.169067 0.171699
corn_starch -0.283947 -0.368472 -0.784851 0.745009 -0.982140 -0.568136 -0.071191 0.169418 0.463082 0.136544 -0.434084 -0.008597 -0.306603 -0.349666 0.478495 -0.181279 0.247155 1.520295 -0.094844 -0.627270 0.559808 0.834769 -0.073341 0.416174 -0.517594 -0.882854 0.749571 0.751587 -0.062110 -1.613094 -0.017847 0.024307 -1.052954 -1.465701 1.325517 0.480699 1.365083 -0.730614 0.937054 0.901230 -1.184013 -0.573375 0.215607 0.166375 0.947468 -0.724267 -0.854069 -0.194531 1.345976 0.222178
ginger -0.012870 -0.599309 0.879459 0.552003 -0.564040 0.185861 -0.346712 -0.355873 0.921577 0.854182 -0.353706 1.470406 0.003617 -0.695239 0.425117 -0.001666 -0.319811 1.177710 -0.270965 -0.396497 0.902919 1.514437 -0.515028 0.954402 0.725645 0.618732 -0.143381 0.325670 -0.535665 0.550628 0.041597 0.136394 -1.762201 -0.449123 0.201271 0.124535 -0.119829 -0.712877 0.702219 0.956148 -1.405671 -0.173751 -0.676037 0.929910 0.766241 -0.202762 -0.826441 -0.340938 0.178271 0.281348
baking_powder -0.317200 -0.585061 -1.701586 -0.536724 -0.445618 -0.843752 0.196815 0.812065 1.250418 -0.050467 0.883689 0.055130 -0.317218 -0.422625 -1.066691 1.372700 1.043770 -0.758910 -1.009711 -0.739344 0.323303 0.477884 -0.066778 -0.894531 -0.117265 -0.445446 -0.551794 -0.667767 -0.972432 -0.317471 0.559818 -0.228878 -1.528785 -0.696843 1.862309 -0.061982 0.684872 0.568490 -0.141781 0.266316 -0.375948 -0.832047 -1.044074 1.238464 -0.089607 -0.850587 0.378436 0.537855 1.383339 -0.129086
jalapeno_chilies -0.594665 -0.139082 -0.856095 -0.865715 0.219520 -0.725577 0.287841 -0.617886 0.488021 0.912764 0.472441 0.410527 -0.769858 0.001182 -0.053978 -0.151593 0.851312 -0.343708 -0.601941 -0.110887 0.996855 -0.109978 -0.253067 -0.586483 -0.172665 0.737207 0.468391 0.046396 -0.270168 0.986281 -1.199707 -0.367211 -0.227402 -1.111908 -0.097987 0.020876 0.415505 -0.204991 0.410857 0.914273 -0.427900 0.353595 -0.429692 1.023479 0.683271 -1.731479 -0.562779 -0.217158 0.231909 -0.609274
dried_oregano -0.525200 1.204677 -0.216261 -0.935590 1.311146 -0.353657 0.415598 0.211284 1.200805 0.365964 0.453285 0.065198 0.253503 -0.360701 -0.142460 0.668443 1.876152 -0.106815 -0.892382 0.434842 1.030516 -0.669203 0.904249 -0.488143 0.658398 -0.537936 0.564251 1.141024 -0.163278 0.175956 0.228275 -0.143770 1.000210 -0.517752 -0.961308 0.107925 -0.168064 -0.752729 0.278290 0.583562 -0.107854 -0.775964 0.199269 1.074188 -0.082896 -1.374701 -1.222750 -0.327046 1.288031 0.484309
chopped_cilantro_fresh -0.261589 -0.268207 -0.782119 -1.318429 0.390018 -0.070935 0.277580 -0.419712 0.163935 0.935607 0.214012 -0.166469 -0.855035 0.760308 0.353793 -0.368883 0.711559 -0.206228 -0.068801 0.149224 0.694835 0.666071 -0.033374 -0.489704 0.070210 0.536324 0.564028 0.245545 0.540506 0.834786 -1.380687 -0.387336 -0.145142 -0.390397 -0.435851 -0.806467 1.069796 -0.496226 1.624228 0.447051 -0.539497 -0.158173 -0.093970 0.983502 0.499409 -1.692785 -0.349784 -0.129217 0.438297 0.494231
fresh_lemon_juice -1.016200 0.231251 -1.437609 -0.995967 0.271709 -0.003412 0.897025 -0.194624 1.002073 0.407444 0.849944 -0.067447 -0.652118 0.572884 0.578029 0.121677 0.579544 1.546029 -0.781843 -1.321560 0.385419 0.728144 0.174221 -0.348513 0.259035 -1.190980 0.142321 0.250449 -0.285597 0.140691 -0.731096 -0.657306 0.048325 -0.405562 -0.236517 0.064944 1.049868 -0.846635 0.332896 -0.580386 -0.333789 -0.995496 -0.442095 0.373178 -1.020631 -0.223017 0.556547 -0.704887 0.331108 1.372637
diced_tomatoes -0.535798 0.591319 -0.570147 0.175142 2.178577 -0.689219 0.751378 0.290301 0.328712 0.860369 0.468246 0.918455 0.126816 0.139721 -0.182672 0.279964 1.213927 0.024774 0.035230 -0.001924 0.999418 -0.683465 0.135405 0.175739 0.401593 0.213603 0.585903 0.410641 0.930244 0.781682 -0.358953 0.029965 0.542293 -0.529960 -0.971399 0.615003 0.771573 -1.162933 0.605731 0.645983 -0.492245 -0.506110 0.356354 0.564841 1.202856 -0.884816 -0.153430 0.073568 0.668611 -0.142526
fresh_parsley -0.685822 1.222890 -0.488149 -0.266615 0.507343 -0.651209 0.885462 -0.187502 0.751721 0.749074 0.590514 -0.106884 0.753841 -0.241197 0.604072 0.692163 0.943359 0.677191 0.146398 -0.566498 1.001992 -1.027092 0.460059 -0.446423 1.449628 -0.398888 0.259200 0.578762 0.390453 0.551854 0.500941 -0.377452 0.141914 0.125748 -0.091879 0.750188 1.401873 -0.815735 0.545963 -0.731888 -0.509502 -0.734216 0.292787 0.442572 -0.396597 -0.983644 0.426368 -0.194069 0.196413 0.838351
minced_garlic -0.586707 0.339374 -0.341572 0.018043 -0.287924 -0.340635 0.174932 -0.334625 0.203618 0.738047 -0.316261 0.155913 0.415981 -0.036779 0.331116 -0.311677 0.833278 1.261612 -0.141346 -0.043459 0.739655 -0.336982 0.397197 0.139650 0.467249 -0.289287 0.608173 0.348954 0.026925 0.649210 0.218602 -0.018221 0.063189 -1.445632 -0.177064 0.133667 1.211750 -0.726528 0.816304 0.358590 -0.962937 -0.831783 0.112575 0.982346 0.591176 -1.246126 -0.739604 -0.507500 0.537971 0.551848
chicken_broth -0.026114 0.597602 -0.313066 0.748613 0.672613 -1.214841 0.105851 1.067482 0.576145 0.232532 0.720419 0.393070 -0.084222 -0.754681 0.500107 -0.023275 0.486148 0.192376 0.615704 -0.376157 0.890774 -0.245973 0.598526 -0.463318 -0.235954 0.649224 0.401838 0.687030 0.176226 0.560888 -0.587881 0.231035 -0.463382 -0.415546 0.416833 0.297228 1.222595 -1.195260 0.994806 0.509600 -0.824613 -0.097480 0.654930 0.951583 0.282974 -1.402356 -0.335123 -0.475464 0.888294 -0.455062
cajun_creole -1.006682 0.819728 -1.147559 1.096606 1.338655 -2.178785 -0.107412 -0.164299 0.473924 0.331469 0.838267 0.108896 0.793948 -1.041772 0.204820 0.353758 0.961481 0.791006 -0.111199 0.447618 -1.036732 -0.115249 1.830369 -0.222581 1.611560 -0.385205 1.033628 -0.713772 -0.236230 -0.927979 -0.624680 -0.788319 -1.093558 -0.869867 -0.466345 0.955921 0.754012 -1.457890 -0.348371 0.415850 0.034413 -0.645953 0.371164 0.159683 -0.290815 0.094216 0.031837 0.269684 -0.107668 0.106105
sour_cream -1.007602 0.305553 -0.460812 -0.195126 0.419256 -1.368332 0.421865 0.689039 1.283665 1.000269 1.055738 -0.373437 -0.608598 0.424937 -0.273937 0.420519 1.443589 -1.380834 -0.048067 -0.006163 0.640098 -0.068674 -0.300077 0.023632 -0.375740 0.255704 0.789411 0.161276 0.145155 0.604194 -1.430231 -1.026322 0.368264 -0.186515 0.047334 0.539454 0.922538 0.307251 -0.352745 0.587597 -0.404103 -0.002374 0.126163 0.849707 1.371264 -0.605224 -1.273246 -0.206961 0.343652 -1.146161
thai 0.063625 -0.129436 -0.095730 -0.716147 -0.648603 0.091269 -0.495601 0.556413 -0.672165 -0.126169 0.024332 0.585920 0.067041 -0.444512 0.771738 -1.243098 -0.768902 0.625165 -1.174662 0.717075 -0.034904 0.256709 -1.097051 1.232060 0.605601 1.307400 0.663660 0.575077 -0.100340 0.764664 -0.706764 0.099615 -1.118231 -0.870471 0.276427 -0.573499 0.445300 -0.282576 2.646813 0.284432 -0.838861 -0.324351 -0.520117 0.227519 0.676548 -0.861763 -0.502803 -1.263269 0.099468 -0.362699
cayenne_pepper -0.857220 0.105093 -1.068804 -0.025980 0.839812 -0.738087 0.619221 -0.695795 1.220559 0.341597 0.668939 0.286870 -0.247651 -1.096731 0.482392 0.468571 0.923689 0.107527 -0.643301 0.455623 0.523442 0.297163 0.718014 0.087305 0.208713 0.621081 0.484668 -0.346781 0.590190 0.108826 -0.205338 -0.205088 -0.316618 -0.603517 0.381456 0.360208 0.328538 -0.843299 0.106595 0.109812 -1.075190 -0.892075 -0.382383 1.121058 0.315255 -1.095175 -0.353735 -0.362704 -0.413848 0.595116
brown_sugar 0.107925 -0.384150 -1.066498 -0.313683 -0.788848 -0.130800 -0.206983 -0.530023 0.438612 0.564020 -0.348592 0.055734 -0.788091 -0.824963 0.610032 -0.019140 0.580964 0.115568 -0.884104 -0.121917 0.205473 0.021657 -0.776099 1.492350 0.891522 0.356773 0.919137 -0.136192 -0.782723 0.013338 0.154968 -0.049558 -1.298602 -0.904747 1.498792 0.662801 0.548450 -1.077203 1.351058 0.282612 -0.610156 -0.538323 -0.505647 0.046659 0.761700 0.128316 -1.136211 0.265917 1.255362 0.156180
fresh_ginger -0.386824 -0.127935 0.293373 0.412861 -0.568169 0.713767 -0.123791 -0.876169 0.514182 0.271034 0.068624 0.330354 -0.301440 -0.416163 0.625062 -0.361778 0.286340 0.611518 -0.228970 -0.503383 1.168474 0.980749 -1.052981 0.943599 -0.353104 0.368114 0.224783 1.234936 0.135154 -0.267628 -0.314295 0.650150 -1.475086 -0.715597 -0.012355 -0.458623 0.336711 -0.851601 1.200064 0.272110 -1.174916 -0.637338 -0.580496 0.593658 1.215096 -0.898715 -0.713162 -0.424060 -0.288099 0.733562
cooking_spray -0.316127 0.511203 -0.366202 -1.746644 0.752429 0.215713 0.380317 -0.362733 -0.824369 0.881700 -0.115889 0.463251 -1.277373 0.462161 -0.223872 0.657610 0.574738 0.095893 -0.796585 -0.379415 1.037868 -0.043051 -0.117257 -0.318223 0.791806 -0.877270 1.181450 -0.265159 0.084783 0.501417 0.706762 -1.488676 -0.880266 -0.029731 -0.430487 1.063913 2.078311 0.412358 0.839477 0.551761 0.861148 -1.226854 -0.710891 -0.549230 0.141545 -0.386443 -0.619982 0.942541 1.926925 1.103193
shallots -0.457563 0.074783 0.708003 -0.873080 -0.548326 -0.615480 -0.144019 0.647401 0.558357 0.152979 1.195514 0.110633 -0.583706 -0.645566 0.913107 -0.175557 -1.185367 1.277281 -1.074102 -0.311737 0.635918 -0.837018 -0.999009 0.408686 0.054403 0.061357 0.533829 0.356662 -0.493519 0.450617 -0.163783 -0.809371 -0.061927 -0.691803 -0.174352 0.010562 1.406245 -0.775466 0.621307 -0.229610 -0.872968 -0.759502 -0.475088 0.458453 -0.402358 -0.667407 -0.314100 -0.734337 -0.158505 0.937799
garlic_powder -0.794533 0.990076 -0.819686 0.042405 0.386340 -0.562307 0.716519 0.318386 0.590623 0.554641 -0.190203 -0.126680 -0.297411 -1.153018 0.266416 0.014460 1.250488 -0.603439 -0.430690 0.102844 1.027148 0.239293 1.148560 1.150227 0.653636 0.594688 1.097398 0.564546 0.641029 0.104481 0.531958 -0.062266 0.135580 -0.788149 0.245153 1.020610 -0.311752 0.245069 -0.524870 0.657842 -0.316460 -1.369275 -0.205724 0.982192 0.009841 -1.175452 -1.237600 -0.102389 0.803876 -0.036473
lime -0.071724 -0.100616 -0.255007 -1.389269 -0.158066 -1.001250 -0.253187 0.013729 0.643421 0.197478 0.666391 0.739130 -1.125738 -0.841040 0.607723 -0.570727 0.293381 -0.237796 -0.654793 0.442890 0.022401 0.384875 -1.428042 1.043750 0.327400 1.414540 0.499043 0.419758 -0.058601 0.574759 -1.093104 -0.211471 0.556822 -0.943326 0.104567 -0.184440 -0.544009 -0.686555 0.777349 1.172612 -0.762596 -0.345028 -0.163328 1.596980 0.636006 -0.469927 -0.901511 -0.865764 -0.306471 -0.448623
japanese -0.564255 -0.846447 0.012702 0.482914 -1.163940 -0.495119 -0.271387 -0.331987 0.033745 1.068587 -0.755746 0.899499 -0.400657 0.303574 0.190592 1.279556 0.530508 1.486940 1.154163 0.521673 -0.142668 2.856317 -0.819877 0.579977 0.034001 -0.058668 -0.336521 0.344404 -0.294975 -0.468414 -0.369260 0.699677 -1.275031 -0.225801 -0.044234 0.696180 1.621731 0.267435 -0.398905 -0.804674 -1.192791 -0.054369 -1.012381 0.175507 -0.161061 0.406355 -1.897276 -0.103047 -1.542831 0.735571
lemon_juice -1.088591 0.550725 -0.644771 -0.365402 -0.186386 -0.034022 0.726456 -0.134864 1.048876 0.365577 0.637687 -0.123789 -0.218827 -0.084342 0.091048 0.510905 1.117103 1.605838 -0.778030 -0.906678 0.787474 1.339528 0.092326 0.095260 0.826023 -0.263730 -0.409437 0.599033 -0.581314 0.121651 -0.720113 -0.391744 -0.075054 0.124847 0.171406 0.887015 0.517197 -1.262247 0.179516 -0.081732 -1.096430 -0.796062 -0.166546 0.734089 -0.052204 -0.378805 -0.046945 -0.303681 0.329998 -0.108735
fresh_lime_juice -0.728912 -0.443995 -1.554546 -1.742145 -0.085438 -0.313843 -0.206044 -0.145754 -0.515729 0.530566 0.273229 0.178506 -1.155385 0.361259 0.175763 -0.585848 0.290501 0.045888 -0.866697 0.514093 0.376042 0.233539 -1.061159 0.302701 0.110654 0.689287 1.243513 0.259627 -0.070711 0.657471 -1.337014 -0.227393 -0.265047 -0.953257 -0.832738 -0.757699 1.090336 -0.531585 1.138982 0.879518 -0.323001 -0.696002 -0.285464 0.012249 -0.196449 -1.072791 -0.977963 -0.148147 0.166232 0.565233
flour -0.268101 -0.638803 -0.133970 0.106972 -0.142738 -1.037260 0.884388 0.568751 1.476660 0.524202 0.596364 0.688356 -0.397622 -0.871512 -0.045597 1.178639 0.208088 0.317372 0.247910 -0.173629 0.139664 -0.209706 0.901050 0.167639 0.728294 -0.104435 0.138902 -0.306384 -0.915735 -0.064435 0.297000 -0.232397 -0.675360 -0.783369 1.209199 0.997325 0.609719 -0.330056 -0.805383 0.392913 -0.938550 -0.373922 -0.661868 0.823418 0.829026 -0.198594 -0.448626 0.485987 0.543074 -0.705907
honey 0.080426 -0.115321 -0.380906 0.075565 -0.763420 -0.088858 -0.001238 -0.941535 0.267250 -0.127606 0.998680 -0.556674 -0.510080 -0.640948 0.480794 0.215613 0.186020 -0.014354 0.034827 -0.798135 0.766466 1.077854 -0.320413 0.615395 0.866762 -0.456261 1.155096 0.009125 -1.048245 1.035534 -0.270229 -0.109523 -0.373306 -0.609829 1.380956 -0.388216 0.654156 -0.292368 0.322795 0.393273 -0.774059 -1.201654 -0.953376 0.311182 0.266772 0.002150 -0.690744 0.218636 0.978057 0.845498
vanilla_extract -0.345396 -0.685194 -2.097464 -0.578508 -0.865294 -0.177355 -0.338329 -0.036130 -0.195230 -0.523383 0.947423 -1.015681 -0.391322 -0.131962 -0.351190 0.791972 0.427897 -0.673709 -0.526919 0.198461 0.383732 0.424016 -0.210906 -0.383579 0.357750 -0.580861 -0.615150 -0.594474 -1.678327 -1.450293 -0.094579 -0.464880 -0.688693 -0.397325 1.161246 0.961877 1.563462 0.311442 0.283045 -1.251290 -0.291231 -0.563947 0.270310 -0.227514 1.022810 1.576583 0.143275 -0.257257 1.639477 0.107737
paprika -0.971557 0.674184 -0.813885 -0.127434 0.517081 -0.398782 1.208855 -0.499148 1.185483 0.660634 0.426044 -0.118664 -0.532879 -0.858093 0.743110 -0.391784 0.561736 -0.230723 -0.380787 -0.104479 0.551011 0.568419 0.998071 0.057203 1.128365 0.730039 0.693244 0.139896 0.448080 -0.031669 0.100961 -0.342906 -0.444205 -0.075680 -0.086438 0.465909 -0.015747 -0.895142 -0.234840 0.397365 -0.351572 -1.728701 -0.190429 0.968123 0.126039 -1.242038 -0.358920 -0.381269 -0.216655 0.642867
chopped_onion -0.577808 -0.017408 -0.084107 -1.091831 1.261764 0.022650 0.433111 0.239435 -0.234687 0.964968 -0.168177 0.646467 -0.358394 0.168153 0.300938 0.383575 0.960562 0.131385 0.090109 0.022406 0.928215 -0.886683 0.570368 -0.969807 0.676205 0.203901 0.262738 0.074686 0.577392 0.194896 0.034977 -0.608013 0.255835 -0.157668 -0.421880 0.289409 1.339486 -1.244301 0.565030 0.158160 -0.225459 -0.335127 1.069046 0.835322 0.792142 -1.300770 -0.680112 0.382970 1.170432 0.927076
fish_sauce -0.275512 -0.201018 0.736483 -0.687754 -1.310070 0.318132 -0.821299 0.493764 -0.083210 0.155495 -0.088608 0.124547 0.391619 -0.163346 0.654765 -0.828911 -0.711505 0.681459 -1.189506 0.542042 0.197688 -0.712552 -0.988451 0.659232 0.403144 1.070423 0.854325 0.959969 -0.664886 0.917887 -0.521567 -0.412113 -1.455139 -0.790239 0.080664 -0.693759 -0.078238 -0.378222 2.264735 0.511502 -0.555362 -0.151198 -0.144748 0.436549 0.428206 -0.672670 -0.848207 -1.194325 0.570196 -0.434277
ground_cinnamon -0.112155 -0.597325 -1.775853 -0.411726 0.363570 0.318827 0.322041 -0.934900 0.907293 0.052705 0.736396 -0.808234 -0.467559 -0.786720 -0.061342 0.538871 1.114592 -0.963534 -0.533334 -0.461730 1.245240 0.577419 -0.194841 -0.537375 0.308814 0.294856 0.051081 -0.878271 -0.532097 -0.730652 0.338917 -0.280099 -0.296233 0.094670 0.768867 0.093984 0.270566 -0.599246 0.991672 -0.148295 -1.126774 -1.165207 0.091957 0.890863 0.860520 0.557540 0.383691 -0.063966 1.374625 1.309013
avocado -0.223370 0.197118 -0.401508 -1.438489 0.046540 -1.417570 0.261527 -0.283333 0.434532 1.193302 0.038899 0.624249 -1.261691 0.317242 -0.179840 0.235248 1.012004 -0.271146 -0.180297 0.717275 0.549484 1.638824 -0.526552 0.128992 -0.037854 0.578253 0.526546 0.433991 -0.219444 1.099553 -1.406420 0.050252 1.321193 -1.246018 -0.874029 0.558546 0.501418 0.252800 -0.370639 0.988442 -0.193698 0.026824 -0.270525 0.971095 -0.400218 -1.111189 -1.347011 -0.011646 -0.506983 -0.690709
canola_oil -0.745865 -0.737490 0.176833 -0.618457 0.070569 -0.251095 0.218226 0.036895 0.233747 0.590485 0.593311 0.772461 -0.574328 -0.396896 0.377730 0.727619 0.437421 0.731284 -0.127764 0.145254 0.480601 0.168326 0.217531 0.320185 -0.050807 -0.262531 0.884667 0.336544 -0.281742 0.434121 -0.525504 -0.359485 -1.461963 -1.110834 0.208123 0.001366 0.523747 -0.405998 0.234341 0.385993 -0.353249 -0.155335 -0.400000 0.637640 1.186647 -1.035927 -0.956144 0.124133 0.339816 0.570992
dry_white_wine 0.113487 0.975016 -0.005130 -0.615120 0.064655 -0.837030 0.981969 0.598068 0.231207 -0.411882 1.182849 0.551570 -0.032018 -0.155767 0.599888 0.160263 0.025904 1.296366 0.195126 -0.978957 0.083363 -1.306845 -0.327278 -0.123710 0.185620 -0.623046 -0.392183 0.208714 0.058854 -0.095099 -0.073104 0.269137 0.789332 -0.114360 -0.541590 0.149323 2.033431 -1.427017 0.003411 -0.547044 -0.317782 -0.896205 0.027049 0.739425 -0.764219 -1.500609 0.245365 -0.040369 0.022946 1.109756
lemon -0.867871 0.809815 -0.994949 -0.432001 0.372578 -0.549941 0.249776 0.024959 1.611590 0.329242 1.181844 0.078364 -0.014727 -0.658587 0.269465 0.515008 0.708494 1.181785 -0.242326 -0.564755 -0.334163 0.666841 -0.579065 0.587383 0.963019 -0.081131 -0.521946 0.756069 -0.769468 0.272140 -0.071033 0.222579 -0.587164 0.085872 -0.299221 0.052447 0.140628 -0.695074 -0.010704 -0.053584 -0.983990 -0.837488 -0.793133 1.629516 -0.243150 0.318498 0.569498 -0.266214 -0.042323 0.240194
rice_vinegar 0.161183 -0.290321 0.252695 0.109171 -1.221490 -0.170711 -0.697169 -0.132423 -0.279148 1.077716 -0.600761 0.294884 -0.517102 0.417046 0.855294 -0.217995 0.080931 1.253497 -0.166695 0.463223 -0.213571 1.714804 -0.328696 0.858102 -0.190582 -0.398681 1.000439 0.761192 -0.934995 0.718259 -0.568428 0.529887 -0.971397 -1.509705 0.814529 -0.213096 0.974737 -0.221393 0.715936 0.117242 -0.582831 -0.266622 -0.976588 0.361658 -0.118504 -0.542343 -1.742547 -0.405237 0.342608 0.391510
yellow_onion -0.638923 0.170173 0.079888 -0.084672 0.782525 -0.795699 -0.105915 -0.907408 1.301034 0.592456 0.453185 0.847133 -0.345444 -0.822307 0.357129 0.526402 0.167641 0.278931 0.277352 -0.012865 0.935282 -0.867284 0.064487 0.181980 -0.253145 0.508093 0.986503 0.428635 -0.170135 0.549958 0.083627 0.201141 -0.704818 -0.622247 -0.528323 0.088389 0.114367 -0.386709 0.334772 0.092984 -0.442537 -0.579664 -0.075106 1.406088 1.202991 -0.848907 -0.664893 -0.327776 0.244262 0.388164
green_bell_pepper -0.619878 0.296988 -0.879331 0.832104 1.495390 -1.517638 0.232344 -0.733359 0.259178 0.362433 0.079420 0.211022 0.865591 -0.317934 0.202867 0.036253 1.027190 0.630720 -0.368012 0.495159 0.549838 -0.360775 0.450016 -1.073419 0.379228 0.157214 1.131665 0.683261 0.305970 0.054346 -0.324027 0.148930 -0.553558 -0.297624 -0.261956 0.607481 0.892387 -0.850097 0.564341 0.422774 -0.369057 0.329453 0.360101 0.262214 0.268423 -1.443203 -0.923149 -0.368095 0.361238 -0.467998
greek -0.981312 1.706882 0.127387 -0.692687 0.785324 0.713205 0.385278 -0.880789 0.491277 -0.158774 1.589171 -0.651868 1.399044 1.061334 0.058524 1.173303 1.969518 0.764703 -0.498963 -0.626352 1.517556 -0.178168 -0.164662 -1.512742 0.283134 -1.349466 0.222605 0.922909 -0.739377 0.263085 -0.612389 -0.074521 0.650882 0.299460 0.227669 0.391108 -0.550029 -0.785948 0.368156 0.218111 -0.385713 -1.269451 -1.315703 0.767757 -0.232014 0.789010 0.169604 -0.234070 0.516544 -0.301343
cilantro_leaves -0.801939 -0.763399 -0.026376 -0.352630 -0.526973 0.170242 0.083955 0.195143 0.620069 0.188228 0.157861 0.735475 -0.736799 -0.342986 -0.211646 -0.146581 -0.495635 0.796031 -0.701946 0.444964 0.365813 1.155065 -0.601294 0.131382 0.048100 0.846546 -0.044419 0.434050 -0.597592 1.639901 -1.094670 -0.918522 -0.590537 0.027961 -0.758452 -0.680986 0.303277 -0.518246 0.161456 1.079144 -1.323781 -0.347987 -0.037595 -0.021713 0.461481 -1.083069 -1.225759 -0.675254 0.173146 0.008874
tomato_paste -0.203756 0.037475 -0.359601 0.383129 0.647161 -0.053206 0.469889 -0.601597 1.063259 0.649236 0.114996 0.871460 0.538709 -0.512286 0.453000 0.572172 0.736312 0.188222 -0.459261 0.602130 0.811760 -1.386896 0.295164 0.235523 0.464533 0.068288 0.396123 0.416976 -0.088554 0.089162 0.236505 0.114649 0.587331 -0.328459 -0.915028 0.359572 0.696515 -1.326117 0.176957 0.115142 -0.978413 -0.638770 0.338087 0.588309 1.016951 -0.792965 -0.833184 -0.150809 0.516091 0.656938
heavy_cream -0.905420 0.152472 -1.298302 0.209084 0.241887 -0.724860 -0.056100 0.143682 2.108649 -0.045508 1.173333 0.170398 -0.692216 -0.697136 -0.299890 0.663574 -0.521707 0.552129 -0.690570 -0.395618 0.874267 -0.772260 0.749818 1.013118 -1.049458 -0.625651 -0.590479 0.427810 -0.930035 -1.017125 -0.630458 0.036649 -0.485367 -0.420993 -0.120493 0.830644 1.066747 -0.379286 -0.046791 -1.219250 -0.509354 -0.585954 0.067155 -0.025984 0.592442 -0.492697 -0.100979 -0.360931 0.265966 -0.122439
cilantro -0.035710 0.226481 0.182416 -0.297052 -0.350652 -0.220900 0.043476 -0.429632 0.561202 0.787281 0.324239 0.912477 -0.685171 -0.387501 0.573693 -0.207819 0.258755 -0.176274 -0.291848 0.461176 0.824780 0.451412 -0.266533 0.328655 -0.188939 1.213318 0.306734 0.615822 -0.447930 1.092303 -1.221884 -0.087509 -0.318254 -0.848564 -0.549903 0.474166 -0.084283 -0.134467 0.312821 1.265799 -0.867599 -0.250789 -0.896806 1.379160 0.867062 -0.875246 -0.670927 -0.442393 0.309493 -1.062419
fresh_basil -0.057484 0.345962 -0.896175 -0.992460 0.167331 -0.379970 0.312195 -0.154440 -0.500959 -0.403066 0.011962 0.840170 0.600243 -0.453262 0.171935 0.002600 0.245687 1.237201 -0.444708 -0.071146 0.639877 -1.297406 -0.886321 0.099928 1.504233 -0.555948 0.547844 0.869063 0.146600 0.940267 0.085324 -0.481273 0.944223 -0.712942 0.069244 0.361637 1.048129 0.342824 1.307355 -0.418190 -0.329025 -0.292061 0.140099 -0.591803 0.350266 -0.747104 0.009523 -1.126250 0.934338 0.559189
boneless_skinless_chicken_breasts -0.494554 0.870808 -0.262563 0.343333 0.528933 -0.365568 0.217879 0.289575 0.437994 0.420030 0.368863 0.202249 -0.413008 -0.392386 0.030897 -0.236167 0.812452 0.317496 -0.299817 -0.470146 0.579100 0.430365 0.499358 1.147015 0.069952 -0.220014 0.770341 0.306655 0.519859 0.303192 -0.904110 0.148914 -0.312887 -0.775358 0.405088 0.094196 0.560668 -0.202792 1.008327 0.631960 -0.961107 -0.377463 -0.652183 0.098161 0.814174 -1.097567 -1.022678 -0.375622 0.468479 -0.377344
flat_leaf_parsley -0.072118 0.519002 -0.432267 -0.069452 0.526326 -0.350271 0.968398 -0.249982 1.116637 0.188567 0.848994 0.593405 0.433965 0.003594 0.678470 0.526241 0.205146 0.944997 0.222989 -0.165548 -0.039157 -1.189518 0.071288 -0.143053 0.267258 -0.980190 0.464415 0.733143 -0.206866 1.131253 0.190581 -0.553882 0.418912 -0.166119 -0.915468 0.222260 1.191138 -0.825657 -0.151009 -0.437028 0.119249 -0.721731 -0.269767 0.891881 -0.221169 -0.615079 0.785658 -0.317919 0.504457 1.383251
white_sugar -0.605136 -1.147198 -1.405255 0.038815 -0.049182 -0.209125 -0.774704 0.187285 -0.079412 -0.278593 0.148355 -1.323177 0.869059 -0.299671 -0.358683 0.242554 0.943612 0.335306 -0.929030 0.536601 0.203098 0.507540 -0.003198 0.080481 0.809647 -0.214562 -0.410476 0.283995 -1.364411 -0.953893 0.304951 0.821049 -0.175807 -0.270173 1.196694 0.400770 0.549301 -0.246099 0.476538 -1.107457 -1.348049 0.055715 -0.032510 1.788648 0.450249 -0.555299 -1.379923 0.049395 1.684208 0.398665
lime_juice -0.149475 -0.284340 -0.760286 -0.619219 -0.809390 -0.573101 -0.453936 -0.436096 0.519245 1.029892 -0.030198 -0.135234 -1.169230 0.005907 0.390275 -0.632402 -0.068186 0.022494 -1.452866 0.710347 0.502496 0.418693 -0.122185 0.249425 -0.321362 1.315631 0.622754 -0.004559 -0.698735 1.019598 -0.828886 0.002244 0.046340 -0.819673 -0.300729 0.189003 0.295552 -0.441076 1.029071 0.531771 -0.740707 -0.331483 -0.064210 0.774775 0.137127 -0.861280 -0.804644 -0.611601 0.329971 -1.091491
chicken_stock 0.050418 0.401199 0.274513 0.234006 -0.085736 -1.199617 -0.475427 0.087809 1.396135 0.347651 0.805035 0.314468 -0.084263 -1.005844 0.322190 0.366527 -0.424485 0.499289 0.482460 -0.389448 0.464659 -0.333480 0.175590 -0.074683 0.015543 0.510809 0.583239 -0.007638 0.344827 0.041417 -0.227484 -0.111738 -0.564464 -0.522615 -0.071146 -0.562326 0.891211 -0.846023 1.120883 0.907768 -1.394122 -0.545636 0.291266 0.783438 0.020701 -0.812959 -0.309701 -0.238857 0.183284 0.300055
bay_leaves -0.584159 0.516210 -0.107114 0.383085 0.847283 -0.420745 -0.091111 -0.081519 1.079829 0.800617 0.324734 0.682408 0.166316 -1.448379 0.424286 0.287694 1.191975 0.422015 -0.442365 -0.515135 -0.097724 -1.828158 -0.712705 -0.586487 0.593298 0.400818 0.289585 -0.378085 -0.384600 0.026419 0.284465 0.330997 -0.632332 0.197657 -0.674087 0.012613 0.421508 -1.842968 -0.113971 0.898171 -0.804661 0.532623 0.022986 1.005111 -0.543226 -0.751178 -0.896895 0.342151 0.195694 1.062212
potatoes -0.738451 -0.180193 0.113341 0.271164 0.724823 -0.221977 0.208655 0.045177 2.409965 1.054501 -0.374782 -0.187079 -0.306988 -0.169589 0.054473 1.131881 0.474031 0.199741 -0.443197 -0.195604 0.228918 -0.099944 -0.808501 -0.222908 0.631297 0.822721 -0.342308 1.200148 0.227982 0.653241 0.985090 -0.029222 -0.352498 1.594897 0.439021 0.235210 0.661721 -0.848137 0.527676 -0.480187 -1.138904 -0.191613 0.017464 1.016274 0.211582 -0.693073 -0.271232 0.174844 -0.109081 -0.472586
spanish 0.369004 0.293845 -0.934135 -0.938139 0.375769 -1.429667 0.419609 -2.240832 0.751036 -0.019092 0.648697 -0.950252 -0.292750 0.051203 0.359819 0.204043 -0.548187 0.776430 1.064007 1.020368 -0.219730 0.206808 -0.747452 -1.351875 1.100121 0.096735 0.241048 1.163021 -0.857110 -0.188666 0.735169 0.081717 0.183594 0.361931 -0.788970 -0.098429 1.582327 -1.251976 -0.199950 0.157268 0.110429 -0.541994 0.621914 0.937735 0.420122 -0.542636 1.056543 0.998157 -0.058842 0.218616
chicken -0.760206 0.124077 0.029856 0.416985 0.027822 -0.598091 0.571270 0.117047 0.619749 0.225245 0.742002 0.203093 0.017285 -0.890461 0.166021 -0.143360 0.264613 -0.168170 0.583300 -0.862013 0.696671 -0.274750 -0.202690 -0.145324 0.490784 0.918777 0.440123 -0.222149 -0.171382 0.584049 -0.295581 0.248772 -0.623224 0.046994 -0.037635 0.328842 0.628864 -0.311289 -0.153373 1.056342 -1.304820 -0.166014 -0.724016 1.150401 0.120478 -0.888275 -1.087798 -0.230028 0.178884 0.008451
corn_tortillas 0.109482 0.135594 0.206176 -1.217210 0.157064 -0.781714 0.441714 0.145966 0.734656 1.149210 0.114659 0.295253 -1.596879 -0.384475 -0.174184 0.182278 1.175792 -1.684299 -0.119704 0.437651 0.794073 0.401510 -0.099448 -0.811309 -0.484145 0.814086 0.765868 -0.262458 0.196475 1.056582 -0.779071 -0.900919 0.563829 -0.100916 -0.329368 -0.257473 0.133547 0.806513 0.086912 0.915987 -0.067378 0.361047 0.289701 0.712023 0.776099 -1.319590 -1.563119 -0.217050 0.511063 -0.057094
salsa -0.302780 0.637646 0.037560 -0.612463 0.453983 -0.774771 0.358597 0.024152 0.292693 0.711296 -0.133425 0.073490 -0.876851 0.028533 -0.542194 0.321379 1.230708 -1.125262 0.353374 0.617775 0.469744 0.467565 0.095059 -0.065912 -0.351116 0.441353 0.806754 -0.133687 0.938290 1.082946 -1.024537 -1.230246 1.025044 -0.486374 -0.406475 0.735786 0.611683 0.639342 0.082657 1.447362 -0.139436 0.098005 -0.174942 0.488032 1.065317 -0.870507 -1.031342 0.161605 0.401269 -0.964923
cumin -0.016393 0.490452 -0.035567 0.381073 0.732702 -0.616568 0.654683 -0.746907 1.061371 0.741098 0.316723 0.995796 -1.144698 -0.570074 0.042757 0.288738 0.712606 -0.641733 -0.370590 -0.021467 1.586217 0.864441 0.222924 0.037997 0.168344 1.428235 0.271817 0.292729 0.226380 0.616886 -0.741200 0.089349 0.264750 -0.365017 -0.466338 0.704159 -0.437751 -0.862485 -0.354147 1.699673 -0.989938 -0.730055 -0.412894 0.403680 1.083023 -0.634553 -0.547010 -0.038429 0.198133 -1.310236
freshly_ground_pepper -0.610794 -0.195176 -0.553144 -0.266951 -0.020056 -0.522052 0.514544 -0.231800 0.650688 -0.083618 1.034271 -0.021859 -0.083046 -0.659721 0.234226 0.515090 -0.038629 0.482193 0.324420 -0.168269 0.845315 -0.781300 -0.099778 -0.559725 -0.263936 -0.095875 0.822294 0.990945 -0.296492 1.071493 -0.181879 -0.182352 0.213180 -0.651514 -0.252636 -0.152791 1.133278 -0.317992 0.160089 -0.403784 -0.474690 -0.460507 -0.264724 0.330833 -0.355876 -1.102511 0.151769 -0.816239 -0.205556 0.400334
ground_turmeric -1.192985 -1.444970 0.055335 0.288046 0.559667 1.581993 0.334352 -0.528043 0.748346 0.535022 -0.160272 0.144767 -0.152724 -0.446262 -0.260347 -0.272807 -0.025714 0.389044 -0.850062 -0.034244 0.596769 1.040509 0.149178 -0.409106 0.350899 1.269635 -0.968557 -0.475711 0.283380 0.862331 0.139546 -0.549400 -1.086043 0.723189 -1.024184 -0.181940 0.389986 -1.213416 0.582059 -0.078677 -1.497748 -0.319442 -0.439584 0.844094 0.855699 -0.459275 -0.736659 -0.596393 0.042712 0.800818
baking_soda -0.947300 -1.122038 -1.438446 0.691199 -0.539313 -0.090737 -0.321306 0.428366 0.488988 -0.203365 0.673458 -0.422855 -0.445543 -0.376894 -0.906316 1.171361 0.604161 -0.818494 -0.699726 -0.867754 0.701672 0.429151 0.544617 -0.919918 -0.294555 -0.470384 0.093134 -0.286190 -1.305404 0.438620 0.679501 -0.339690 -1.964280 -0.639635 1.825780 0.007349 0.292555 0.613351 -0.708631 -0.064023 -0.282255 -0.720113 -0.781288 0.288707 0.238961 -0.239820 0.290304 0.323445 1.521709 -0.301791
sea_salt -0.500067 0.031011 -0.628712 -0.470275 0.614930 -0.670005 -0.677475 -0.702732 1.208994 0.206813 0.343108 0.764957 -0.442941 -1.001433 -0.173078 1.004013 -0.258220 0.605868 -0.872081 0.318209 0.344852 0.104407 -0.897150 0.786990 -0.101081 0.089652 0.433737 0.405723 -0.149398 1.214051 0.936627 0.018286 0.188187 -0.334335 0.332965 0.038476 0.136557 -0.036281 -0.182791 0.042539 -0.842122 -0.951152 -0.992556 0.863592 -0.356190 -0.201365 -0.502804 -0.326505 0.003644 0.478911
cumin_seed -0.645275 -0.995504 0.176252 -0.083332 1.044654 1.155247 -0.171597 -1.084583 1.656069 0.757044 -0.199009 1.061169 -0.806335 -0.665109 -0.326564 -0.037611 -0.258691 0.347461 -0.911393 -0.447799 0.344386 1.269828 -0.263637 -0.520942 0.219213 0.620081 -1.306319 0.488141 -0.379306 0.661515 -0.201229 -0.075966 -0.760009 0.709825 -1.065645 -0.624461 -0.339658 -0.914681 0.091907 0.125617 -0.841398 0.486814 -0.568432 0.788793 0.432550 -1.185537 -0.693900 -0.192095 -0.042487 0.614716
garam_masala -0.542720 -0.060274 0.602913 0.469099 0.436411 1.079899 0.359349 -1.290015 1.533895 0.334350 -0.090272 0.924335 -0.328691 -0.638783 -0.775630 0.320244 0.286875 0.675807 -1.300524 0.105502 0.893326 1.448048 0.797107 0.324201 0.261348 0.620625 -1.653895 0.133461 -0.207641 0.114918 -0.382281 -0.179483 -0.516336 0.767957 -1.371461 -0.123270 0.077982 -1.366489 0.073779 0.275293 -1.345663 -0.531959 -0.155710 0.068784 1.285106 -1.080426 -0.699353 -0.089878 -0.493215 0.239626
shrimp -0.619383 0.803988 -0.173371 -0.101406 -0.620151 -1.483806 -0.696311 0.256014 0.287359 0.654999 0.360513 0.456504 0.652680 -0.580230 0.337967 -0.127638 0.070258 1.120744 -0.059776 0.620715 -0.335782 -0.407571 0.144892 0.125291 0.869931 0.510761 0.007318 0.752693 -0.211834 0.356899 -0.141703 -0.166433 -1.368851 -1.278775 -0.173355 0.069985 1.288876 -0.911612 0.562063 0.296301 -0.333691 -0.625648 0.193987 1.110121 -0.152079 -1.091692 -0.129002 -0.085525 -0.595486 -0.493171
black_beans 0.111459 0.364580 -0.608581 -0.350195 0.986712 -1.191078 -0.316826 -0.360861 0.015849 0.464189 0.007428 0.321637 -0.736237 -0.176416 -0.706706 0.402618 1.092931 -0.606582 -0.126931 0.892987 0.886365 0.345962 -0.183481 -0.174927 -0.628010 1.011607 0.744020 -0.519817 0.908212 1.219754 -0.785305 -0.307203 1.065973 -1.012037 -0.187881 0.437403 0.424916 -0.150445 0.750442 1.876363 -0.653842 -0.132594 -0.435906 0.858561 0.863647 -0.463096 -0.269223 0.156702 0.448316 -1.272942
zucchini 0.203009 0.059187 -0.464218 -0.324112 0.992123 -0.680229 0.240797 -0.118264 0.618764 0.461649 -0.289184 1.450779 0.289121 0.044980 0.182793 1.065625 0.439885 0.714554 0.137483 0.116638 1.101362 -0.002724 -0.002515 -0.754474 0.559844 0.154925 1.018874 0.526321 0.354954 0.809441 0.017391 0.088472 0.456426 -0.080649 0.115656 0.399019 0.410015 0.183085 1.602878 -0.183522 -0.745204 -0.410434 0.269977 -0.093548 0.331729 -0.298764 -0.294054 -1.358828 0.853103 0.203135
ground_beef -0.744917 0.108149 -0.240899 0.625383 0.165152 0.240224 0.662682 -0.113385 0.923905 0.811416 -0.655202 -0.043421 0.981374 -0.187443 -0.198180 0.113411 1.159388 -0.909380 0.915006 0.460770 0.095249 -1.291529 -0.066902 0.663355 0.423576 0.124993 0.693570 0.558077 0.782750 0.403685 0.064917 -0.534538 1.025282 -0.800878 -0.227452 0.974314 0.510211 0.165476 0.195001 0.353577 -0.337961 0.059978 -0.038417 1.380188 1.617510 -0.487773 -0.914502 -0.135231 0.536015 -0.363460
dried_thyme -0.373997 0.495591 -0.217906 -0.128164 1.127651 -0.717074 0.559404 -0.055396 0.247798 0.311526 0.505349 0.367117 0.320847 -0.849298 0.698145 0.446487 1.031853 -0.196850 -0.647312 0.065342 0.617313 -1.095287 0.698203 -0.140511 0.515242 0.070360 1.241410 -0.192376 0.326937 -0.526801 1.024350 0.450297 -0.345031 -0.302289 0.027484 0.735133 0.510863 -1.515560 -0.073441 -0.089711 -0.022259 -0.978849 -0.081059 0.784219 -0.701656 -0.835274 -0.956380 0.093063 -0.056132 1.027562
large_garlic_cloves 0.246936 0.030687 -0.658627 -0.049849 0.426978 -0.351447 0.644617 -0.317521 0.531186 -0.257077 0.850846 0.860671 0.509510 -0.161622 0.622450 -0.270798 0.371652 0.168054 -0.103372 -0.039258 0.108921 -0.174396 -0.619700 -0.604588 0.221137 -0.675774 0.610408 0.543431 -0.439869 0.764642 -0.559795 -0.260991 0.392740 -0.184497 -0.722107 -0.791852 0.986403 -0.802401 0.595024 -0.131625 -0.084673 -0.194518 -0.099985 0.418145 -0.151016 -1.247971 -0.186394 -0.981632 0.381188 1.514485
flour_tortillas -0.185677 0.510510 -0.432784 -0.344517 0.653232 -1.205845 0.319809 -0.424336 0.425616 0.575072 0.007829 -0.222449 -1.054747 -0.321102 -0.696658 -0.279946 1.050083 -1.178017 0.540874 -0.117934 0.384653 0.854193 0.171938 0.202311 0.066044 0.488094 0.635043 -0.298900 0.790492 0.934367 -0.884442 -0.852622 0.800932 -0.191532 -0.345993 0.082115 0.656681 1.030138 0.068802 0.781197 -0.211330 0.306286 0.305979 0.408523 1.475673 -1.186771 -1.304243 0.031733 0.466421 -0.531988
tomato_sauce -0.617672 0.275731 -0.504217 0.483009 0.995630 0.148344 0.459656 -0.238834 0.622397 0.441369 -0.655411 0.540754 0.674686 -0.411155 -0.341774 0.433094 0.938513 -0.263744 0.057606 0.407247 0.988877 -1.137698 0.718149 0.268276 0.574052 0.229100 0.433473 0.973317 0.376017 0.336057 0.349510 -0.072560 0.608916 -0.246631 -0.861176 1.005888 0.522603 -0.391664 0.287016 0.396904 -0.280465 -0.249105 0.638419 0.751579 1.028001 -0.958556 -0.733514 -0.049814 1.126601 -0.182934
buttermilk -1.514054 -1.209409 -1.542686 -0.207552 -0.219068 -0.614183 0.836447 0.612989 0.519218 -0.375211 0.723751 -0.509369 -0.270630 -1.119431 -0.752722 0.902085 0.345983 -0.508504 -0.500444 -0.570439 0.322049 0.333910 0.779022 -0.588512 0.452548 -0.079114 0.372256 -0.576119 -0.370302 0.235226 0.574600 -0.432357 -1.604243 -0.626114 1.851944 0.131809 0.022305 1.126458 -1.248590 -0.332776 -0.313654 -0.374226 -0.588550 0.121861 -0.153708 -1.183880 0.097592 0.078954 -0.084631 0.061224
plum_tomatoes -0.142188 0.382508 -0.373752 -0.885526 0.544313 -0.312214 0.691963 -0.887434 0.509265 0.066469 0.292907 1.061210 0.057022 -0.228214 0.030918 0.098779 0.423927 0.736297 -0.219661 -0.611563 0.678779 -0.269560 -0.102562 -0.919731 1.025212 -0.365309 0.219700 0.537293 -0.120443 1.018197 -0.509039 -0.260744 0.616154 -0.113582 -0.835846 -0.261637 0.567985 0.117916 0.421817 0.055636 0.023530 0.053831 -0.078561 0.119320 -0.036868 -1.735348 0.061161 -0.475467 0.442638 0.482933
coconut_milk -0.070879 -0.399019 -0.468316 0.121797 0.493236 -0.008533 -0.388637 -0.008607 0.268347 -0.184697 0.120865 1.491912 0.236558 -0.641403 0.033187 -0.476797 -0.349676 0.194180 -1.855445 0.752715 0.340390 -0.203389 -1.297409 0.905194 0.176588 1.604876 -0.525732 -0.300226 0.020430 0.049035 -0.033015 0.558838 -1.068268 -0.029182 -0.151595 0.394280 0.445143 -0.924376 1.909645 0.217077 -1.293181 -0.451830 -0.989693 0.415818 0.986927 -0.091792 -0.173266 -0.828188 -0.028850 -0.552703
granulated_sugar -0.357578 -0.567127 -1.864272 -0.406642 -0.284436 -0.045852 -0.162809 0.190390 0.835355 -0.097717 0.726654 0.068092 -0.796217 -0.692631 0.118950 0.435301 0.313256 0.014138 -0.716042 -0.219725 -0.081096 0.739519 -0.876398 0.788528 -0.046119 -0.776102 0.512165 0.221484 -1.722159 -1.024991 -0.165279 -0.299240 -1.853657 -0.865476 0.585205 0.816342 0.240795 0.485327 0.427070 -0.213690 0.169622 -0.268276 -0.877088 -0.022734 0.462432 0.945817 0.258070 0.184543 1.226904 0.408103
fresh_cilantro -0.061504 0.647030 -0.470186 -0.619986 0.381351 -0.283303 -0.358089 -0.301326 0.321613 1.006285 0.242678 0.581091 -1.035321 -0.012457 0.620139 -0.188458 0.781897 -0.231210 -0.427590 0.463435 0.545602 0.876752 -0.458324 0.260047 -0.326113 0.990851 0.192738 0.630315 0.325942 0.880709 -1.063681 -0.058191 -0.305233 -0.491740 -0.447140 -0.139695 0.107594 -0.330825 0.930188 0.686315 -0.390619 -0.529012 -0.352626 0.962624 0.707268 -0.500245 -0.503876 -0.354923 0.305703 -0.320106
bay_leaf -0.702179 -0.275939 0.268775 0.525072 0.945780 -0.415989 0.343078 -0.154998 0.754903 0.367086 0.554651 0.756737 -0.193018 -0.713170 0.314616 0.804268 0.242279 0.919983 -0.027836 -0.336846 0.536100 -1.278059 -0.247137 -0.675433 0.533612 0.504720 0.277543 0.189237 -0.459620 0.011708 -0.013735 0.067230 -0.276049 0.531777 -0.840451 0.584449 0.974574 -2.198185 -0.513266 0.728984 -1.025684 -0.019027 0.458125 0.377403 -0.014801 -0.388238 -0.874711 0.517395 0.378683 0.396698
celery -0.541770 0.029184 -0.196446 0.861474 1.057069 -1.057999 -0.074381 0.595868 0.999634 0.943120 -0.096579 0.195995 0.747116 -0.150373 0.521089 0.817704 0.344044 0.945327 0.195107 0.061996 -0.169402 -0.925928 0.917189 0.067678 0.355094 0.152895 1.173736 0.541254 0.581838 0.290257 0.129471 0.460319 -0.386693 -0.140329 0.455169 0.244406 0.526502 -1.196943 0.185114 0.472337 -0.990170 -0.188490 0.470883 0.977594 -0.451946 -0.769117 -0.419531 0.087210 0.410017 -0.062691
korean -0.300897 -0.279960 0.549408 0.791421 -1.132179 -0.040029 -1.048972 -0.950146 0.508947 0.706098 -1.287951 1.260232 1.162072 0.300447 -0.198217 0.516723 1.628775 0.411261 0.608576 -0.498488 0.300661 0.130796 -0.968217 0.502260 0.765209 -0.809879 0.744971 -0.161226 -0.833791 1.368236 0.576725 0.634178 -0.848400 -1.378066 1.440025 -0.142001 -0.591555 0.088399 1.385042 -0.526277 0.019116 0.357149 -0.176892 -0.075802 0.705707 0.511075 -1.395184 -0.743027 -0.237979 0.497847
crushed_red_pepper 0.038622 0.463859 -0.667417 -0.459161 0.419924 0.332430 0.432448 -0.073279 -1.071978 -0.144774 0.129097 0.921751 0.099142 -0.303190 0.276611 -0.154369 0.819638 0.621336 -0.236979 -0.467171 0.712803 -0.067988 -0.457010 0.487549 1.169382 -0.853463 0.493735 1.340984 -0.184124 0.875919 0.301553 0.557454 0.083858 -0.995535 -0.500654 -0.457139 1.298400 -1.186934 0.596876 -0.133322 0.199506 -0.702331 -0.095275 -0.270785 0.036190 -1.297861 -0.407200 0.048361 0.764159 1.260174
vietnamese -0.880233 -0.606591 0.481798 -0.767246 -1.610467 0.229311 -0.651536 0.544573 0.306171 1.033703 -0.044559 0.192181 0.244124 0.872314 0.566633 -1.316868 -0.801166 0.529682 -0.387217 0.237767 -0.105540 -0.827346 -0.514313 0.512128 0.766428 0.240606 0.726250 0.657896 -1.614315 0.198072 -1.128623 -0.174801 -1.045690 -0.895638 -0.067824 -0.882125 -0.385542 0.218737 1.000902 0.249969 -0.187706 -0.501471 -0.227451 0.710864 0.436254 -0.279857 -1.488293 -0.905278 0.363845 -0.175854
moroccan 0.234956 -0.123941 -0.713284 -0.235844 0.746935 0.551460 0.701265 -1.166802 1.096417 0.992412 1.147905 0.192693 -0.465868 0.384055 0.754506 0.400343 -0.502206 -0.089898 0.588864 -0.272288 0.772302 0.873959 0.972195 -0.681355 0.941558 0.633046 0.154711 -1.163725 -0.573611 1.221632 -0.175243 0.207312 0.112454 0.749926 -0.535974 -0.734481 -0.204750 -0.786211 0.046659 0.643938 -1.203593 -1.921529 -0.374369 1.125786 -0.066529 1.113179 1.440494 0.025920 0.655814 1.157499
british -0.432627 -0.756224 -0.393992 -0.161680 -1.037017 -0.453824 0.745291 -0.284032 1.705718 -0.019414 0.547481 -0.741129 0.099969 0.328455 0.061194 1.639697 0.238257 -0.486116 0.282058 -0.444455 -0.064636 -0.981962 -0.501122 0.408736 0.112702 -0.528264 -0.249502 -0.268862 -0.353935 -0.953760 0.551977 0.389473 -0.892609 0.590210 1.351188 0.256398 0.818641 -0.064220 -0.798089 -1.099614 -0.577270 -0.273922 -0.527187 0.488388 0.355136 -0.070554 -0.118026 1.257855 -0.506569 0.102378
chopped_cilantro -0.299788 0.078091 0.066057 -0.356408 0.129898 -0.062895 0.055783 -0.600012 0.842414 0.827803 0.356957 0.220181 -0.991895 -0.317422 0.262843 -0.422507 -0.096013 -0.197111 -0.444972 0.127117 0.814838 0.654841 -0.133485 0.168944 -0.625225 0.695640 0.198034 0.693433 -0.105281 0.818206 -0.777558 -0.334186 -0.289838 -0.567869 -0.743747 -0.037383 0.405515 -0.279575 0.410935 0.576240 -0.411484 -0.330240 -0.432743 1.208266 0.897942 -1.241887 -0.350869 -0.234542 0.115439 -0.317262
chicken_breasts -0.025468 1.068426 0.139852 0.538431 0.236840 -0.659356 0.076233 0.089480 0.620922 0.415665 0.324021 0.022786 -0.337424 -0.737924 0.312346 -0.474596 0.263584 0.229478 0.016294 -0.424272 0.570653 0.278529 0.187781 0.721258 0.428740 0.413967 0.521687 0.550233 0.339270 0.527582 -0.687702 -0.417642 -0.235413 -0.079277 0.380099 0.602211 0.522792 -0.435007 0.872632 0.894582 -1.000073 -0.311317 -0.032295 0.265269 0.930271 -0.453854 -0.793524 -0.607187 0.685494 -0.693465
mayonaise -1.218733 0.035416 -0.940497 -0.655622 -0.911113 -0.747299 1.340402 0.424508 0.904926 1.343636 0.036100 -0.740217 -0.528783 -0.123664 1.108249 -0.011823 0.953230 0.423396 0.202076 0.595089 -0.535987 0.473943 0.709063 -0.184796 0.782166 0.289572 0.730094 0.615810 -0.157905 0.991041 -0.914948 -0.974986 0.283865 -0.373952 0.725896 0.870916 0.189234 0.175188 -0.913568 -0.647559 -0.056514 -0.293519 0.311461 0.437507 -0.457259 -0.789317 -0.314732 -0.758766 -0.883257 -0.032853
shredded_cheddar_cheese -1.336448 0.123881 -0.471428 -0.093468 0.841793 -1.189477 0.586163 0.313785 0.520802 0.481954 -0.070810 -0.597295 -0.119512 0.073509 -0.886910 -0.152576 1.046929 -0.930373 0.708912 0.008559 0.628705 0.316492 0.116231 -0.339310 -0.327463 0.453720 0.316145 -0.072717 1.501731 0.312495 -0.632239 -1.062628 1.023544 -0.090728 0.111906 0.936720 0.718477 0.827534 -0.506533 0.638832 -0.370535 0.417832 0.657537 0.589026 1.046169 -1.082993 -1.000626 -0.053060 0.091959 -1.019267
cucumber -0.810698 0.518961 0.200069 -1.025675 0.106414 -0.258544 -0.355364 -1.168650 0.303227 1.147533 0.133611 -0.807661 0.435146 1.180419 0.434567 -0.284034 0.645365 1.318144 -0.642984 0.402868 0.090323 1.181591 -0.489866 -0.492502 1.270823 -0.310501 0.980793 1.233324 -0.944691 1.016782 -0.662836 -0.008893 0.030884 -0.571414 0.089815 -0.288432 -0.312440 -0.483286 0.819550 0.193699 -0.368005 -0.253628 -0.956544 0.603094 -0.282309 0.096115 -0.860049 -0.793142 -0.317552 -0.581967
green_chilies -1.284599 -0.360884 0.806899 0.611677 0.630271 0.529718 -0.119470 0.188768 1.292851 0.438088 -0.282193 0.900954 -0.185185 -0.686315 -1.014373 -0.106728 0.147222 0.406794 -0.412616 -0.765752 0.228839 1.018941 -0.652112 -0.190770 0.722993 0.601803 -1.249618 -0.017752 -0.009052 0.964709 -0.398795 -1.069555 -0.464952 0.652143 -0.123251 0.378075 0.076583 -0.316900 0.200605 0.840312 -1.330120 0.481745 -0.537324 0.806711 1.218031 -0.340924 -1.013611 -0.389802 0.247448 -0.771455
ground_coriander -0.600804 -0.151101 -0.157115 -0.563928 0.694395 0.958374 0.641127 -1.084113 0.911797 0.862238 0.283787 0.225343 -0.659281 -0.176231 0.406379 -0.121512 -0.038102 0.037356 -0.993461 -0.033452 1.108367 0.579527 0.183860 0.464713 -0.267992 0.683084 -0.088083 -0.449206 0.282825 0.457748 0.042533 -0.249596 -0.692559 0.253067 -0.938431 -0.221909 0.076027 -0.669616 1.053857 -0.089811 -0.994419 -0.869746 -0.325984 0.976256 1.050996 -0.739956 0.038515 -0.229111 0.254600 1.336871
whole_milk -1.224010 -0.852416 -1.947928 0.088160 -0.196863 0.042977 0.424581 0.068385 1.214008 -0.293606 0.652946 0.451507 -0.049058 -0.206189 -0.296469 0.274682 -0.433126 -0.477275 0.234719 -0.376344 0.292812 -0.659920 -0.402904 -0.051308 -0.442148 -0.902686 -0.339454 0.106194 -0.342742 -1.158152 -0.176851 -0.865695 0.002332 -0.553410 0.405708 0.608430 1.262058 -0.032602 -0.832137 -0.024388 -0.281667 -0.688786 -0.401420 0.633375 0.565768 -0.205925 0.364518 0.175085 0.352423 0.829216
filipino -0.421496 -0.729300 -0.166461 0.101931 -1.014565 -0.014791 0.249821 0.875808 -0.061327 0.451862 -1.114628 -0.064258 0.524166 -0.553461 0.108618 -0.045992 0.187479 0.673106 -1.145799 -0.201394 0.025320 -1.757459 -1.862131 0.196305 0.638620 1.029839 0.201392 0.502163 -0.193728 -0.612214 1.464952 0.711563 -1.454017 0.114471 0.388916 0.808044 -0.147639 0.369886 0.358484 0.986868 -0.811482 1.228393 -0.391905 0.938880 0.009158 -0.152699 -0.243545 0.055575 0.787041 -0.727874
red_wine_vinegar -0.193047 0.461747 0.143134 -0.408417 0.560212 -0.511160 0.547917 -0.986360 0.538611 0.115132 0.638353 -0.707230 -0.204010 -0.576995 0.746734 0.160746 0.915903 1.021842 -0.423022 -0.434356 0.526319 0.085323 -0.694085 -0.847949 0.318724 -0.733460 1.298947 1.348564 -0.243501 0.834105 -0.008871 -0.486195 0.962951 -0.072934 -0.150912 0.191185 0.173211 -0.661434 0.079908 -0.066387 -0.026729 0.188566 0.012305 0.206090 -0.313647 -0.413889 -0.205523 -0.645314 0.671573 0.514442
tumeric -0.149844 -0.404850 0.257501 0.332364 0.261380 0.945235 0.753483 -0.771606 1.501540 0.331527 0.146688 1.164419 -0.174042 -0.567392 0.527454 -0.214367 -0.353579 0.019484 -0.443060 -0.543135 0.949628 1.092393 0.178907 0.243938 0.653457 1.182288 -0.888830 0.220376 0.219585 0.691644 -0.327817 -0.118675 -0.924370 0.528067 -0.580634 0.017624 -0.304191 -1.047276 0.565182 0.375399 -1.011684 -0.612613 -0.540071 0.663659 0.679524 -0.786465 0.464840 -0.340603 -0.313056 0.292473
cinnamon -0.097059 -0.860466 -0.773850 0.304253 -0.237189 0.556671 0.713623 -0.271593 1.378671 -0.164861 0.925552 0.836209 -0.387500 -1.116056 0.282704 0.401512 -0.114814 -0.494330 -0.389085 -0.578082 1.131689 0.608207 0.402795 -0.196845 0.533139 0.619071 -0.430850 -0.482588 -1.311643 -0.241243 -0.677797 -0.536278 -0.677683 0.002236 0.238078 1.095770 -0.362428 -1.228940 -0.240976 0.821732 -1.036011 -0.486174 -0.504478 -0.005215 0.476566 0.955508 0.138665 -0.311400 0.930842 0.178380
curry_powder -0.321290 -0.822052 0.095753 -0.076339 0.731994 0.571888 0.808958 -0.265714 0.303272 0.456483 0.438186 0.689814 -0.381279 0.171454 0.710946 -0.176440 0.120580 0.052927 -0.786381 -0.089874 0.922504 0.015639 0.056951 0.436243 0.176144 1.000461 0.280713 -0.130532 0.519127 0.541032 0.027770 0.128830 -0.993186 0.176877 0.350355 0.031583 0.908924 -1.526546 1.350843 -0.586123 -0.806239 -0.499783 -0.663804 0.486421 1.026339 -0.822735 -0.162052 -0.309939 -0.540995 0.309466
worcestershire_sauce -0.733816 0.511504 -0.967797 0.407703 -0.321367 -0.834634 0.702671 -0.595266 1.009441 0.658997 -0.722146 -0.674619 -0.107233 -0.963208 0.777086 0.576855 1.604794 0.542271 -0.117540 -0.018358 -0.811078 -0.633168 0.750332 0.770436 0.222769 -0.202847 0.874639 0.271620 0.424494 -0.189913 -0.277982 -0.423221 -0.503028 -0.613720 0.167480 0.872568 0.533364 -1.115116 -0.474410 0.036464 0.217030 0.280324 0.188385 0.022329 -0.392708 -1.072776 -0.769236 0.804069 -0.110838 0.253407
white_onion 0.204592 -0.290114 -0.255890 -0.724577 0.096912 -0.936361 -0.193359 -0.115799 1.188375 0.548290 0.256784 1.246477 -0.715323 -0.649444 0.397964 0.360065 0.540521 -0.211820 0.309060 0.507916 0.336858 0.479202 -0.069022 -0.418762 -0.400325 0.524911 0.351122 0.566734 -0.532986 0.151471 -0.787933 0.218057 -0.152060 -0.270481 -0.928516 -0.221963 0.179034 -0.190239 0.039246 0.826164 -0.293037 0.291110 0.445977 1.366420 -0.180696 -1.168933 -1.247139 -0.180474 0.437390 0.549484
ground_ginger 0.255281 -0.328819 -0.906616 1.077042 -0.255999 0.756073 0.734399 -0.837744 0.521194 0.361389 -0.108915 -0.310758 -0.345289 -0.455248 0.992462 -0.524993 0.282685 -0.414952 -0.047762 -0.421348 0.708162 0.887726 0.714492 0.400217 0.054541 0.548628 0.325200 -0.395880 -0.283080 0.462380 0.304651 0.382763 -0.771270 0.310609 0.620821 -0.067354 0.359149 -0.979872 0.649608 -0.247574 -0.863037 -1.256832 -0.495550 0.771705 0.446499 -0.128287 -0.104761 -0.137824 1.048545 1.283823
sesame_seeds 0.592383 -0.237593 0.285480 0.375154 -0.580643 -0.052912 -0.545576 -0.264611 0.270965 0.499362 -0.353108 0.754729 0.337608 0.149171 0.088317 0.332419 1.271513 0.272862 0.305093 -0.455608 0.162778 1.769118 -0.630650 0.379323 0.539803 -0.824364 0.299608 0.012491 -0.682773 0.504720 -0.205274 0.604733 -0.484387 -0.827368 0.998488 -0.492891 0.054936 0.009293 0.984410 0.186177 -0.412406 0.123610 -1.092478 0.737584 -0.066244 -0.118902 -1.395137 -0.186859 0.515418 1.005667
hot_sauce -0.849330 0.540198 -0.711343 -0.056433 0.130395 -1.062203 0.339427 0.008046 0.455994 0.842988 0.128740 -0.215098 -0.421682 -0.825844 0.265190 0.045759 1.385557 0.112199 -0.189134 0.169074 -0.298343 -0.393599 0.307245 -0.337781 0.284522 0.199200 0.717870 0.155592 0.236523 0.697259 -0.034676 -0.598945 -0.432313 -1.400672 0.081371 0.614390 0.860071 -0.986411 -0.200453 0.434928 0.346118 -0.112088 0.113096 0.525106 -0.115933 -0.996622 -0.281354 0.250005 -0.760275 -0.206145
red_pepper_flakes 0.062815 0.255953 -0.615755 0.381979 0.228255 -0.264833 -0.088444 -0.563431 0.180743 0.020235 0.097902 0.681668 0.266331 -0.758452 0.223238 0.009182 0.629839 0.752993 0.114735 -0.034106 0.980179 0.151167 0.275364 1.059347 0.238589 -0.205644 0.406777 1.344720 -0.442495 1.094604 0.013780 1.101072 -0.071232 -1.280289 0.041697 0.254845 0.074952 -0.894689 0.368967 -0.108654 -0.147258 -0.211146 -0.239192 0.617623 0.317550 -0.799734 -0.426185 -0.517647 0.485464 -0.062046
irish -0.624016 -0.443729 -0.382982 0.188938 0.128191 -0.681145 0.206584 -0.200422 1.211205 1.123201 0.105955 -0.731773 -0.606526 0.602247 0.029580 1.863633 0.820248 -0.496297 0.077810 -0.443187 0.453312 -0.900380 -0.349020 -0.577674 -0.341282 -0.097088 0.306030 -0.270728 -0.397166 -0.132357 1.116833 0.365637 -1.321805 1.187750 1.340253 0.170198 0.778432 0.059830 -0.479409 -0.949212 -0.167616 0.044958 -0.296073 0.159971 -0.059267 -0.044086 0.060071 1.593713 -0.166741 0.088982
cinnamon_sticks -0.392084 -0.252343 -0.167783 0.280438 -0.080576 1.477335 0.072813 -1.068411 0.700225 -0.144704 0.718137 -0.067035 -0.457807 -0.659147 0.410077 -0.624372 -0.021705 -0.229235 0.496198 -1.109538 0.345121 0.027419 -0.970124 -0.414298 0.806165 0.261618 -0.803886 0.396009 -1.432371 -0.379933 -0.932277 -0.212563 -0.570347 0.499007 -0.560443 -0.178943 0.512955 -1.672145 0.276496 0.860375 -0.777294 -0.301139 -0.164018 0.964463 1.165031 0.044390 -0.463493 0.555456 1.229955 1.018289
red_chili_peppers -0.054728 -0.568657 0.402404 0.085251 0.001320 0.080634 -0.864280 -0.387769 1.255961 0.076939 -0.194961 0.403969 0.176741 -0.999921 -0.267932 -0.527333 -1.044851 0.952403 -0.601099 -0.214548 -0.606713 1.185858 -0.760274 0.870840 0.878160 0.423279 -0.019198 0.231191 -0.214098 0.493477 -0.049498 -0.770153 -0.580867 -0.268595 -0.315556 -0.770720 -0.104523 -0.469569 1.127097 0.726372 -1.153566 0.103265 -0.128617 0.477635 0.216042 -0.272587 -0.681581 -0.805492 0.423797 0.341532
bacon -0.584731 -0.126629 -0.531790 0.005504 0.414341 -1.582770 -0.066304 0.161482 0.898924 0.208686 0.096973 0.039460 -0.344575 -0.771080 -0.186859 0.556218 0.241714 -0.045747 0.485180 -0.582139 0.719933 -0.735745 -0.141996 0.078145 -0.139972 0.228428 0.044456 0.395232 0.211767 0.410640 0.657191 0.474268 0.174343 -0.593621 0.931639 0.551097 0.965541 -0.603874 -0.703938 -0.418035 -0.237021 0.483879 0.882627 0.459186 -0.157288 -1.267859 -0.479525 0.410780 -0.437534 -0.295240
whipping_cream -0.497511 0.141618 -1.448463 0.003805 -0.518322 -0.959896 -0.440633 -0.099809 0.076566 -0.622080 1.038204 -0.125771 -0.263027 -0.166567 -0.031181 0.035799 -0.020270 -0.384415 -0.057856 -0.856986 0.334287 -0.770666 -0.731836 -0.521732 0.085173 -0.395326 -0.436275 -0.894503 -0.492415 -1.020535 -0.617509 -0.551535 0.432678 0.107078 0.433336 -0.157491 1.911665 -0.162772 0.231665 -0.952709 -0.627814 -1.022018 0.924256 -0.570684 0.329344 -0.019163 0.500867 0.006935 0.027854 0.517704
boneless_skinless_chicken_breast_halves -0.117031 0.585854 -0.317398 -0.109050 0.876207 -0.501672 0.713737 0.418658 -0.111105 -0.453629 0.574824 -0.720079 -0.200554 -0.163766 0.464383 -0.537504 0.338027 0.357875 -0.447025 -0.152416 0.515888 0.574226 0.621559 0.935155 0.287222 -0.165466 0.699760 -0.144918 0.751991 -0.174933 -0.746303 -0.061136 0.575690 0.469290 0.420173 0.264418 0.946401 -0.346789 1.231103 -0.802111 -0.496627 -0.244674 -0.107160 0.201263 0.306340 -1.212440 -1.280020 -0.596973 0.947850 0.307570
peanut_oil -0.507673 -0.564447 -0.202927 0.302607 -0.398658 -0.304364 -0.609737 -0.204248 -0.196251 0.263267 -0.386141 0.397990 -0.016793 -1.068815 0.543407 -0.269397 -0.341680 0.886262 -0.150665 -0.245301 0.070297 0.549787 0.186711 0.236242 0.179387 -0.057898 1.039913 0.351017 0.728681 -0.070442 0.284025 -0.298280 -1.444548 -1.491377 0.941569 -0.784537 0.317108 0.017791 0.822192 0.338150 -0.584242 -0.573877 -0.151609 0.348042 0.342087 -1.301682 -0.073225 -0.435534 0.052286 0.619530
ground_nutmeg -0.085458 0.147338 -0.653272 -0.075586 -0.204233 0.398909 0.222452 -0.136003 0.344718 -0.081669 0.322591 -0.414568 -0.447497 -1.153324 0.410226 0.660214 0.960590 -0.458270 -1.001860 -0.620502 0.962354 -0.990919 -0.170703 0.057444 -0.104828 0.011033 -0.176117 -0.662513 -0.181810 -0.465494 1.056067 -0.416073 0.075227 0.035748 0.876301 0.508018 0.690813 -0.717946 0.623033 -0.634342 -0.879169 -0.970856 -0.174864 0.703387 0.726814 0.234758 0.031692 0.020498 1.207457 1.118307
clove -0.549925 -0.284212 0.120625 0.508665 -0.057635 0.918531 0.183637 -0.470689 1.144560 -0.045571 0.589612 0.577500 -0.289744 -0.893750 0.285602 -0.346866 -0.013005 -0.118543 -0.105599 -0.750605 0.351068 0.026476 -0.724215 -0.410994 0.842485 0.538457 -0.814667 0.455436 -1.357499 -0.085562 -1.008915 -0.369442 -0.713202 1.167005 -0.312332 -0.072999 -0.285719 -1.875086 -0.250630 0.945419 -0.884612 0.201865 0.131383 -0.009143 0.517954 -0.140582 -1.535897 -0.061780 0.595522 0.849028
parmesan_cheese 0.055536 0.644554 -0.488621 0.016692 0.260809 -0.849157 0.492712 0.027463 0.459202 -0.287381 0.695779 0.723866 0.435576 -0.595645 0.103072 0.753864 0.100917 0.163987 0.668478 -0.718774 0.996258 -1.292950 -0.101581 0.818048 0.986180 -0.419037 0.303481 1.420327 -0.130255 0.609499 0.155103 0.168234 0.957604 -0.485244 0.269632 0.882857 0.530351 0.209539 -0.116103 -0.803264 0.020731 -0.636159 0.384697 -0.103198 0.462757 -0.131417 0.549836 -0.528311 0.234736 -0.655366
dried_basil -0.430719 1.137045 -0.382099 0.079662 1.198315 -0.431281 0.345936 -0.031783 0.079265 0.247192 -0.174955 0.320782 0.992388 0.042551 -0.083597 0.124196 0.976025 0.474962 -0.438287 -0.013618 0.895762 -1.088170 1.032457 0.278727 1.285853 -0.740049 0.292385 0.528564 0.047961 -0.703764 0.572559 0.595398 1.053286 -0.231606 -0.426780 0.850422 0.012372 -0.440633 -0.094769 -0.277077 -0.117446 -0.878415 0.574371 0.267410 -0.074991 -0.561332 -1.079387 -0.089439 1.027550 0.262083
peeled_fresh_ginger -0.296293 -0.724949 0.309270 -0.502904 -0.287703 0.985442 0.000037 -0.713925 -1.226405 -0.066433 0.143424 0.517302 -0.230117 0.453862 0.813019 -0.663934 0.232580 0.745324 -0.284232 -0.352983 0.206814 1.040518 -0.558936 -0.115245 -0.018719 -0.377863 0.481230 -0.169385 0.386710 -0.004948 -0.645199 -0.611999 -1.285404 -0.412061 0.244619 -0.968875 1.175703 -0.946200 1.184758 -0.061195 -0.258023 -0.289350 0.029464 0.082928 0.884197 -1.080727 -0.671659 0.203397 0.149898 1.955316
coarse_salt -0.757983 -0.371018 -0.919689 -0.265994 0.236816 -0.760167 0.248103 -0.426225 0.821604 -0.389842 0.762665 0.547965 0.316470 -0.303413 -0.415232 0.257323 0.392960 0.131785 0.306915 -0.217996 0.323890 -0.117555 -0.617152 -0.249780 -0.341845 -0.223001 0.665312 0.477832 -0.054595 0.469769 -0.147520 0.325122 -0.123415 -0.964289 -0.554681 -1.071303 0.197006 0.461222 -0.388526 0.406813 -0.488573 -0.606813 -0.524924 0.758237 0.305226 -0.985478 -0.179272 -0.266706 -0.341356 0.244938
mushrooms 0.352542 0.600412 0.753097 0.543868 -0.135725 -0.896399 -0.375838 0.295778 0.514503 0.244013 -0.003862 0.993774 0.526327 -0.246610 0.283210 0.410286 -0.141055 0.321709 -0.269953 0.166504 0.604948 -0.313764 -0.269362 0.330209 0.102458 -0.187789 0.461076 0.211674 -0.146784 -0.150960 0.323074 -0.217302 0.055337 0.110091 0.307355 0.638923 1.362471 -0.235536 0.913741 -0.297037 -0.608772 -0.525673 0.111513 -0.061561 0.033633 -0.478482 -1.157758 -0.668125 0.181250 0.459129
warm_water -0.297340 -0.975586 -0.437610 -0.471683 0.146939 -0.282909 -0.298223 0.057898 0.195517 -0.353360 0.648283 0.246666 0.427369 -0.197696 -0.878795 0.469495 -0.430906 0.293916 -0.728107 0.646343 -0.486127 0.163164 -0.226212 -0.063071 1.657177 -0.749212 0.389204 0.041879 -1.294686 0.088410 0.698403 -0.617202 -0.289970 -0.179516 -0.046951 -0.442641 0.519090 0.919329 -0.337300 0.413550 -0.394389 -0.964721 -1.561204 0.872369 0.384624 -0.252263 -0.883904 0.577358 1.224685 0.109854
large_egg_yolks -0.415441 -0.159154 -1.522615 -0.246861 -0.777011 -0.135044 -0.034430 -0.055192 1.311188 -0.149416 0.619385 0.049963 -0.425565 0.228004 -0.128861 0.335845 -0.367929 -0.303652 -0.026829 -0.879779 0.413971 -0.607177 -1.006130 -0.152313 -0.823968 -1.537912 0.139905 -0.143555 -0.964365 -1.633672 -0.173736 -0.591290 0.180770 -0.498597 0.263901 0.202889 1.265778 0.224066 -0.144613 -0.288775 0.016284 -0.883853 -0.137585 -0.430383 0.044113 0.477763 0.483854 0.116362 0.642804 1.272450
balsamic_vinegar 0.095058 -0.010812 -0.444943 -0.497844 0.117690 -0.289769 0.493629 -1.050860 -0.038931 -0.407025 0.092868 0.019354 -0.114369 -0.567002 0.037722 0.091562 -0.396198 1.184107 -0.225021 -0.835909 0.929385 -0.523466 -0.065987 -0.239288 1.138867 -0.729326 1.132573 0.513731 -0.461138 0.953883 0.273053 -0.120008 0.994762 -0.247868 0.229425 0.260119 0.468661 0.187118 0.457590 -0.128746 -0.196002 -0.259084 -0.106128 -0.780668 -0.574714 -0.542241 -0.253516 -0.518462 1.283790 0.200298
celery_ribs -0.577391 -0.195061 -0.141723 0.971855 1.435522 -0.914345 -0.040800 0.005277 0.941565 0.594159 0.581761 1.026790 0.094402 -0.550071 0.317314 0.655425 0.641295 0.425054 0.260106 -0.608191 -0.274745 -1.126326 0.144525 -0.733413 0.030582 -0.426664 1.078751 0.254012 0.205212 0.529105 -0.159407 -0.165656 -0.263061 -0.707977 -0.132509 -0.381599 0.689179 -1.406628 -0.300074 -0.085801 -0.120909 0.040302 0.251029 -0.027947 -0.321387 -0.526225 -0.270915 -0.366792 -0.639068 0.522852
cream_cheese -1.013714 0.530271 -0.963722 0.184839 -0.381271 -1.093496 0.343093 0.452747 0.297839 -0.047573 0.391056 -0.614550 -0.120165 -0.323022 -0.274744 0.276269 1.122028 -0.405218 0.492272 -0.365719 0.740083 0.798846 0.038487 0.238373 0.020382 -0.311710 -0.042937 0.107042 0.023611 -0.179289 -0.829906 -0.859075 0.101905 -0.317466 0.490892 1.464947 0.799694 0.773717 -0.255038 -0.076977 -0.173955 -0.083679 0.442658 0.323197 0.687013 -0.186608 -0.613164 -0.192064 0.572510 -0.220425
white_vinegar -0.624588 -0.655984 -0.421156 -0.190257 -0.467693 0.066191 -0.118406 -0.078177 0.122150 0.663081 -0.259856 -0.308861 -0.221503 -0.498133 0.405032 -0.036983 1.035560 0.277681 -0.493329 -0.351301 0.345262 0.162308 -0.318647 -0.889935 0.288048 0.100269 0.615850 0.617066 -0.874016 -0.133343 0.202875 0.129935 -0.643611 -0.733778 0.293043 0.098612 -0.258466 -0.432040 -0.225767 0.269879 -0.179393 0.580420 -0.016156 1.163729 -0.379051 -0.849508 -1.163126 -0.133972 0.746982 0.373453
egg_yolks -0.586329 -0.615073 -1.205901 -0.377491 -0.609182 -0.740124 -0.126325 0.128862 0.634389 -0.588027 0.891571 -0.844500 0.030429 -0.373167 -0.195486 0.590275 -0.043550 0.801922 -0.190374 -0.037643 0.165277 0.208864 -0.736021 0.453594 0.433778 -0.396548 -0.549152 0.303457 -0.965122 -1.646781 -0.132332 0.194143 -0.032282 -0.265862 0.449886 0.774293 0.774823 0.082399 -0.247686 -0.725005 -1.157282 -0.141571 0.058595 0.593176 0.737410 0.453896 -0.066435 0.075678 0.570933 -0.360375
capers -0.125943 1.002620 -0.354574 -0.339136 0.092256 -0.718159 1.607724 -0.022840 0.441315 -0.092413 0.545646 -0.653533 0.212953 -0.078355 0.577349 -0.046321 0.529251 1.768066 -0.414326 -0.349852 -0.283857 -0.161629 -0.029392 -0.301035 0.772093 -0.996316 0.741091 0.289703 -0.329450 0.526618 -0.200565 -0.639376 1.172006 0.221888 -0.794587 0.583526 0.323419 -0.399988 -0.395525 -0.210920 -0.059077 -0.162454 -0.027781 -0.279696 -0.406858 -0.205475 0.599698 -0.630764 0.616346 0.811943
ground_red_pepper -1.121970 0.219995 -0.624194 -0.666400 0.891452 0.194703 0.171932 -0.436908 -0.364966 0.762612 -0.140964 0.073999 -0.520653 -0.394381 0.228403 -0.111006 0.834292 -0.136901 -0.592796 -0.051082 0.382298 0.606999 0.950512 -0.629786 0.952006 0.047265 0.181296 -0.401073 0.596591 0.044252 0.082804 -1.230988 -0.949606 -0.139689 0.005476 0.001801 0.777240 -0.886962 0.133059 -0.188372 0.217577 -0.828221 0.320700 -0.022372 -0.107426 -1.023704 -0.417379 0.242927 -0.173666 1.321285
onion_powder -0.592222 0.714834 -0.651265 0.244995 0.267525 -0.644445 0.613994 -0.548273 0.475868 0.037261 0.066152 -0.250665 -0.452462 -1.388704 0.148950 0.013099 1.004487 -0.784176 -0.455796 0.331594 0.806723 0.407981 1.239166 1.118067 0.071338 0.307930 1.209282 -0.186391 0.851143 -0.022154 0.725900 -0.034445 0.181290 -1.143604 0.613812 0.727017 -0.756567 -0.207465 -0.874821 0.712311 0.143514 -1.443540 -0.311484 0.458585 0.281310 -0.758661 -0.980970 -0.002387 0.131966 -0.065007
jamaican -0.044777 -1.377696 -0.387213 -0.302072 -0.024431 -0.371652 0.687292 -0.382077 -0.424437 -0.137470 0.360174 0.170459 0.359383 -0.234596 0.718178 -0.441119 0.431642 -0.639162 -1.143072 0.061371 0.820292 -0.789842 -0.811295 -0.380283 0.413565 1.468835 1.054514 -1.795143 0.284045 -0.799089 0.886566 0.291957 -0.356158 -0.583508 1.535329 1.204381 -0.274634 -1.786978 0.656187 0.605911 -0.531962 -0.113722 -1.090013 0.383169 -0.437041 0.693161 -0.925087 -0.165095 -0.227907 -0.453646
dijon_mustard -0.955884 0.389775 -0.411310 -0.354119 -0.204957 -0.676464 1.139648 0.139710 0.581389 -0.000189 0.555327 -1.057172 -0.881681 -0.954675 0.703160 0.377387 0.357630 1.147883 -0.520945 -0.630743 -0.034767 -0.104333 -0.385501 0.281269 0.144484 -0.451003 1.326286 0.442330 0.145462 0.577652 0.159585 -0.912506 0.517211 0.501757 0.444963 0.512635 0.663215 -0.427647 -0.800056 -0.594060 -0.363333 -0.314198 -0.259734 -0.952050 -1.127181 -0.097343 -0.530367 -0.326190 -0.226612 0.883221
rice -0.609539 -0.059795 0.358055 0.922597 0.294124 -0.462981 -0.344727 -0.306291 0.605497 0.597952 -0.090833 0.505414 0.473954 0.014499 -0.396533 -0.106812 0.140900 0.105585 0.383373 -0.224864 -0.037001 0.155260 -0.121956 0.039216 0.900022 0.606740 -0.127973 -0.288584 -0.061204 0.561851 -0.235399 -0.514859 -0.811566 -0.324319 -0.243960 0.420655 0.820123 -0.923612 0.629087 0.823825 -0.603706 -0.273157 -0.473191 0.599051 0.746377 0.017568 -0.751893 0.103370 -0.126616 -0.741327
cold_water -0.323930 -1.117089 -0.697205 -0.223030 -0.136727 -0.991875 -0.713864 0.287051 0.769627 0.060400 -0.109093 0.560365 -0.228915 -0.251914 0.001553 0.028867 0.271488 0.430880 0.073837 -0.372208 -0.107838 0.304922 -0.856990 0.108681 0.371545 -0.341490 -0.081272 0.173791 -0.602093 -1.009109 0.120966 0.354109 -0.107759 -0.963499 1.015403 0.186407 0.516959 -0.627940 0.054820 -0.101819 -0.443073 -0.257790 0.254586 1.146017 0.130667 -0.081428 -0.911058 -0.143080 0.442984 0.257120
crushed_red_pepper_flakes -0.675778 -0.274560 -0.399293 0.522325 0.595672 0.064590 -0.120799 -0.310221 0.178433 -0.220214 -0.048268 0.344217 0.501292 -0.705492 -0.021115 -0.544776 0.043143 1.143790 0.010537 0.048894 0.617144 -0.177151 0.435428 1.008448 0.189543 -0.275763 0.369005 0.820067 -0.039763 0.880596 0.056801 0.677745 0.219929 -1.035325 -0.050574 0.061355 -0.028877 -0.742284 0.183682 0.084756 -0.486430 0.100191 -0.112153 0.615476 0.353042 -0.759005 -1.012963 -0.594443 0.767772 0.134853
mirin 0.252344 -0.410736 1.087892 0.325354 -1.265884 0.246253 -0.130524 -0.303540 -0.737862 0.704577 -0.184868 0.607390 0.481324 0.332132 0.369191 0.776277 0.727149 0.773492 0.602852 0.594025 0.033965 1.154971 -1.000385 0.209155 -0.033163 -0.330138 0.388303 -0.136298 -0.342419 -0.501723 0.090178 0.619011 -1.121101 -0.798393 0.059725 0.702152 1.285710 -0.108755 0.171029 0.191388 -0.792141 0.139151 -1.269151 0.310544 0.012055 0.982137 -1.372122 -0.352580 -1.228078 0.935417
fresh_basil_leaves -0.133894 -0.138284 -0.560478 -0.440649 0.180884 -0.040745 0.384147 -0.194893 0.116459 -0.627404 0.350899 0.620930 0.858519 -0.019512 -0.019386 -0.360643 -0.285277 0.880435 0.059005 -0.154633 0.647766 -0.736913 -0.631910 -0.034420 0.531549 -0.413848 0.467956 0.852799 -0.434907 1.051344 -0.404213 -0.268971 0.848717 -0.299746 -0.637056 0.192583 0.396329 0.571577 0.826770 -0.573574 -0.152488 0.224092 0.043070 -0.333782 0.103790 -0.549277 -0.069512 -1.444085 0.987449 -0.019149
eggplant 0.140341 -0.595586 -0.125434 0.029447 0.505902 0.178745 1.031045 -0.800445 0.161487 -0.416266 0.118289 1.048161 1.263300 -0.331498 0.271064 0.684448 0.119726 0.935871 -0.306549 0.091974 1.047531 0.063149 -0.298169 -0.962727 1.110758 -0.210410 0.440707 0.319988 0.018544 0.514944 0.447798 -0.703408 0.285887 0.132310 -0.322054 0.834168 0.378299 0.107107 0.826596 0.062953 -0.855901 0.105280 -0.299973 -0.348617 0.555201 -0.184824 0.151841 -1.251859 1.090178 0.603791
powdered_sugar -0.681390 -0.410825 -1.309079 0.072446 -0.564869 -0.540176 -0.041173 0.547154 0.284644 -0.043569 1.074891 -0.567681 -0.684857 0.179562 -0.262303 0.389922 0.266009 -0.468865 -0.174739 -0.673856 -0.224446 0.910896 -0.026537 0.003797 0.457222 -0.895555 -0.074410 -0.790397 -1.390626 -0.943254 -0.429669 -1.063778 -0.702195 -0.007018 0.257301 0.453306 0.894455 0.553424 -0.499742 -0.520681 -0.051008 -0.703354 0.125466 -0.441326 0.614494 1.293007 0.044811 0.502658 1.135295 0.220874
russian -0.471160 -0.666384 0.229701 0.344816 -0.310589 -0.531691 0.309181 0.818510 1.640731 0.917558 0.722354 -0.546110 0.093785 1.543197 0.179948 1.399093 1.181387 -0.565741 0.450220 -0.032662 -0.687242 -0.283736 -0.995472 -0.630757 0.639079 -0.892987 0.619148 0.462386 -1.196088 -0.310972 -0.279799 -0.587508 0.478891 1.076976 1.000551 -0.177476 0.198883 -0.144084 -0.963179 -0.545688 -0.363641 -0.100382 -0.302738 0.689206 0.446807 0.937011 -0.639191 0.283472 -0.024599 -0.174531
large_egg_whites -0.027283 0.124495 -0.888951 -0.574276 -0.171385 -0.484998 -0.171515 0.249273 0.573608 0.511675 -0.413118 0.349406 -0.664260 0.315409 -0.236715 0.280774 0.244416 -0.169512 -0.617714 -0.346526 0.766897 0.393487 -0.197005 -0.563540 -0.288335 -1.375720 0.478128 0.315318 -0.202679 -1.305773 0.858041 -1.024886 -0.856574 -0.555166 0.185358 0.662279 1.445029 0.865088 0.763001 -0.135265 0.723573 -0.988249 0.024895 -0.528957 0.060275 -0.060446 0.483271 0.248114 1.276194 1.057631
cooking_oil -0.713227 -0.160175 0.537945 0.336618 -0.389321 -0.187795 -0.067980 0.146523 0.563128 0.592716 -0.565718 0.025377 0.901088 0.000339 0.073213 -0.379415 -0.051825 0.723486 -0.685862 -0.508404 0.540296 -0.152704 -0.138904 0.363374 -0.003590 0.500609 -0.138650 0.524183 0.580469 -0.454507 0.833935 0.339002 -1.112249 -0.452201 -0.220947 0.588947 0.174541 -0.122994 0.677245 0.292514 -0.713479 0.136040 -0.091269 1.274908 -0.277197 -0.994886 -0.327006 -0.377479 0.020557 -0.412145
lime_wedges 0.019304 -0.120416 -0.071499 -1.197112 -0.557619 -0.173242 -0.343939 0.241392 0.038947 0.788199 0.171290 0.489825 -1.000576 -0.136779 0.281079 -0.372902 0.098778 -0.711784 -0.220946 0.799902 0.011644 0.048560 -0.288058 -0.061948 0.131016 0.980559 0.763000 0.369710 -0.399246 0.583405 -1.113752 -0.539925 -0.523998 -0.737570 -0.607717 -0.903244 0.296550 -0.605437 0.820035 1.110431 -0.035968 -0.520859 0.300485 0.092082 0.586593 -0.667941 -0.736016 -0.197408 -0.061241 -0.027286
shredded_mozzarella_cheese 0.064652 0.501945 -0.445189 0.010538 0.381961 -0.317421 0.698165 0.181337 -0.063347 -0.253449 -0.478759 0.232963 0.950564 -0.279177 -0.563265 0.609222 0.671998 -0.223606 0.138594 0.440172 0.966670 -0.490689 0.578537 0.802194 0.812984 -0.555818 0.285177 1.159294 0.307871 -0.218436 0.605393 0.373522 1.248261 -0.118488 -0.476017 0.997292 0.111121 1.312911 0.025071 -0.978540 -0.098928 -0.079211 0.685217 -0.088571 1.011160 -0.771286 -0.732593 -0.513468 1.039893 -0.335550
fat_free_less_sodium_chicken_broth 0.171188 0.419363 0.519983 -0.846486 1.128206 0.100995 -0.015612 0.667327 -0.646354 0.163549 0.150796 0.549480 -1.163255 0.382407 0.326004 0.416061 -0.009060 0.620218 -0.231990 -0.550004 0.429549 -0.091132 0.440325 -0.124373 -0.079120 -0.510782 0.598567 -0.072877 0.781803 -0.022750 0.339824 -0.442795 -0.142231 -0.217727 -0.291890 -0.522524 1.555833 -1.338145 1.155727 0.049675 0.288928 -1.105921 0.644055 0.107213 0.027799 -0.853475 -0.009975 0.671036 1.076063 1.342527
ground_pork -0.576945 -0.437456 0.744067 0.365629 -1.555405 0.420637 -0.054959 0.686608 0.732000 0.712872 -0.755212 0.145026 1.062933 -0.012715 0.612367 -0.101130 -0.104953 0.479239 0.425557 0.324159 0.078914 -0.707240 0.269858 0.226264 -0.498995 -0.301574 0.372728 1.229326 0.192929 -0.360117 0.756476 -0.618981 -0.237250 -1.159743 0.115474 0.075270 0.466859 0.009541 -0.242111 0.386484 -0.497397 -0.293123 0.383474 1.771905 0.484133 -1.089204 -0.443173 -0.374136 0.322202 0.387227
sliced_green_onions -0.660026 0.610251 0.134782 -0.041733 -0.047062 -0.268834 -0.419073 0.102074 -0.885878 0.650057 0.062659 -0.003653 -0.241268 0.215952 0.056186 -0.169099 0.774866 0.192118 0.398348 -0.106668 0.563793 0.331550 0.207479 -0.391597 0.499171 -0.208255 0.615201 0.363130 0.079004 0.744610 -0.664582 -0.670748 -0.735047 -0.993363 -0.022297 -0.162240 1.432371 -0.503659 0.824049 0.351806 0.174588 -0.564099 0.286916 -0.340855 0.626348 -0.799020 -0.690573 0.169968 0.206116 0.276335
cayenne -0.595787 -0.210101 -0.630447 -0.047038 0.366304 -0.178100 0.762727 -0.671874 1.027840 0.598190 0.529669 0.573403 -0.287463 -0.511731 0.668825 -0.192509 0.148193 -0.108069 -0.620026 -0.087652 0.434493 0.396709 0.664333 -0.235720 -0.078852 0.250773 0.240058 -0.050957 -0.127396 -0.107046 -0.047685 -0.034987 -0.831730 -0.854174 -0.081887 0.294019 -0.136591 -0.938209 -0.518881 -0.036977 -0.138828 -0.676388 -0.395627 0.693317 0.040544 -0.933603 0.153136 -0.385013 -0.612803 0.407130
brazilian -0.124864 -0.546511 -1.259394 -1.079243 0.463475 -0.970190 -0.604941 0.237349 0.335774 0.088306 0.292776 0.396775 -0.373690 -0.352801 -0.216153 -0.151501 0.140014 -0.326150 -0.085058 0.970622 -0.331117 -0.837529 -1.296232 -0.061645 0.811239 1.212100 -0.637028 0.362491 -0.627685 -0.686626 -0.425456 0.319961 -0.006108 -0.401501 -0.061647 0.253645 -0.216950 -0.803537 0.313088 0.160185 0.042672 0.438013 0.588255 0.584561 0.605411 0.436410 0.670875 0.152751 -0.449991 -1.163043
mozzarella_cheese 0.138453 0.298489 -0.492301 0.241068 0.236139 -0.587857 0.660736 0.188909 0.124798 -0.765150 0.340092 1.214439 1.273712 -0.739431 -0.242192 0.128176 -0.257500 -0.545943 0.365723 0.422737 0.619025 -1.057883 0.059055 0.202350 1.220373 -0.368348 0.330103 0.959821 -0.480274 0.447896 0.082317 -0.202711 1.314287 -0.219384 -0.755571 1.049349 -0.107115 1.273515 -0.686905 0.081325 0.205321 -0.008068 0.270345 -0.179609 0.745045 -0.562123 -0.407815 -0.919489 1.290645 -0.493614
medium_shrimp -0.916935 0.581603 -0.391824 -0.283338 0.192215 -0.598820 -0.563747 0.203541 -0.285626 0.472519 0.264099 0.660786 0.299283 -0.176816 0.317430 -0.399304 0.015571 0.979938 -0.475249 0.545132 -0.303717 -0.685405 0.323979 -0.003224 0.348850 -0.038622 0.157246 0.633585 -0.212367 0.165552 -0.536072 -0.180834 -0.931957 -1.164164 -0.656234 -0.360293 0.987976 -0.961374 0.373918 0.015591 0.277060 -0.685866 0.080404 0.497220 -0.068038 -1.238820 -0.300387 -0.187275 -0.396511 0.313550
raisins 0.450653 -1.222752 -0.980353 0.256750 0.029078 0.463180 0.771037 -0.610356 0.941767 0.111982 0.455181 0.238564 -0.033375 0.397466 0.225215 0.803034 0.325223 -0.570621 0.075933 -0.338276 0.107618 -0.143333 -0.193573 -0.577066 0.641151 0.082057 -0.301574 -0.382435 -0.914668 0.412944 -0.153966 0.061408 -0.267894 0.762097 0.979822 -0.168616 0.394062 -0.388330 0.149021 -0.210304 -0.897746 -0.012748 -0.188172 0.797992 0.752111 -0.293777 0.447170 0.579072 1.428206 0.246681
red_pepper 0.611513 0.523918 0.168862 0.386081 0.253782 -1.044592 -0.455848 -0.584105 0.808151 0.449532 -0.349711 0.526928 0.055564 -0.567801 -0.049230 -0.040374 0.247191 0.113905 0.089976 0.092497 -0.164169 0.557230 0.286839 0.583259 1.023580 0.412559 0.432220 -0.149937 -0.032084 0.872085 -0.196234 -0.185360 0.263375 -0.691836 0.590241 0.066593 0.288641 -0.389386 1.103551 0.297602 -0.508413 -0.288356 -0.112964 0.428498 0.555380 -0.317543 -0.673439 -0.663164 0.017154 -0.503992
coriander 0.374629 0.055655 0.786786 0.303854 0.139444 0.110277 0.088782 -0.333357 1.567519 0.337377 -0.028692 0.509495 -0.076937 -0.363421 0.012578 -0.152277 -0.196811 -0.224890 -0.366365 -0.097971 0.265621 1.299220 -0.258276 0.560767 1.383522 1.196324 -0.454029 0.028897 -0.084051 0.153440 -0.180030 -0.303661 0.119689 0.685013 0.044829 -0.199300 -0.777237 -1.040067 0.648441 0.759481 -1.313901 -0.831817 -0.121623 0.359556 0.797219 0.126308 -0.556067 -0.444582 -0.093695 -0.508270
sauce -0.263820 0.224684 -0.240795 0.273144 -0.960607 -0.631682 0.127236 -0.041357 0.565871 0.660211 -0.106273 0.163217 0.024284 -0.717468 0.090683 -0.011089 0.353164 0.039053 0.352385 -0.049981 0.196834 0.008750 0.249249 0.131738 0.709254 0.204001 0.663816 0.342518 -0.295308 0.222992 -0.111420 -0.370915 -0.631761 -0.827869 -0.028294 0.429498 0.584360 0.148514 0.052512 0.678299 -0.512108 -0.546995 -0.072513 0.273373 0.351694 -0.276844 -0.609524 -0.399268 0.162564 -0.088494
finely_chopped_onion -0.496368 -0.359846 0.151946 -0.572288 0.397847 0.456233 0.574286 0.535190 0.300806 0.151081 0.007338 0.820262 -0.234238 0.096338 -0.159191 0.390014 0.768693 0.065539 -0.177176 -0.534852 0.446371 -0.352502 0.147877 -0.820975 0.360065 -0.227574 -0.232657 0.055772 0.419139 0.361562 0.195052 -0.908884 0.508746 -0.373736 -0.268507 0.066487 1.600477 -0.933609 0.207199 -0.154490 -0.221516 -0.481223 0.338160 0.584578 0.207172 -1.490750 -0.411859 -0.014109 0.221552 0.933705
oyster_sauce 0.349036 -0.204616 0.870538 0.829323 -1.053282 -0.645051 -0.459635 0.442329 0.096255 0.045089 -0.632462 0.077990 0.643656 -0.143368 0.570862 -0.515808 -0.683368 1.033809 -0.151753 -0.099295 -0.106954 0.419081 0.097373 0.288132 0.160059 -0.153370 0.882386 0.534481 0.291779 -0.674897 0.813715 -0.178686 -1.204299 -0.669793 1.150709 -0.410373 0.481745 0.189799 0.817000 0.557389 -0.581251 -0.193136 0.253330 0.305160 0.225303 -1.072339 -0.974265 -0.375653 0.821862 0.119814
sweet_potatoes 0.236917 -0.906857 -0.997178 -0.594020 0.553561 0.467183 -0.163051 -0.334682 0.402771 0.009590 0.117765 0.237796 -1.017749 -1.291079 -0.032273 1.204752 0.370616 -0.548020 -0.693796 0.441179 0.790989 0.643973 -0.132502 0.100259 -0.135499 1.035216 0.173198 -0.040974 0.029801 0.488303 0.525569 -0.335338 -0.329845 -0.370241 0.852543 0.521893 0.284904 -0.824563 1.173149 -0.350021 -0.790125 -0.496029 -0.026788 -0.112679 0.768802 0.763172 0.594765 -0.381809 0.339211 0.123885
beansprouts -0.197614 -0.267049 0.226662 0.074616 -1.426082 0.175953 -1.003387 0.952498 0.175570 0.604023 -0.572598 0.093104 0.239702 -0.421181 0.694748 -0.809613 -0.307031 -0.009048 0.451758 0.344176 -0.385450 0.507964 -0.318391 0.610650 0.736917 0.719918 0.603190 1.438370 -0.429289 0.270322 -0.936816 -0.575626 -0.703469 -0.589152 0.578087 -0.604081 0.329638 -0.151998 1.324139 -0.111176 -0.293623 -0.522207 0.557779 0.143170 0.307182 -0.062415 -1.300859 -1.504317 -0.047622 0.295072
black_peppercorns -0.596030 -0.489571 0.374728 0.070454 0.208299 0.548377 -0.046265 -0.321467 1.172631 0.380187 0.328785 0.360944 -0.546715 -1.196759 0.497689 -0.435751 -0.322615 0.418602 -0.058451 -1.219215 -0.027738 -1.097623 -1.119063 -0.472015 0.044767 0.156506 -0.039646 0.057922 -0.872767 -0.206448 -0.469992 0.041510 -0.570721 0.487989 -0.613084 -0.385442 0.208971 -1.212853 -0.239554 0.344144 -0.559850 1.003598 -0.140980 0.496861 -0.341816 -0.691562 -1.311419 -0.227993 0.076595 1.381674
crushed_tomatoes -0.099489 0.615219 -0.490431 0.101947 0.733478 -0.090852 0.366396 -0.628436 0.451822 0.049279 0.082245 0.972324 0.754673 -0.652429 -0.012216 0.415428 0.517630 0.194182 -0.656085 0.390722 0.862976 -1.128029 0.673048 0.279330 0.783290 0.256786 0.049621 0.494380 -0.055951 0.133324 0.241897 0.726040 0.485197 -0.264093 -1.049129 0.041186 0.254536 -0.792175 0.305995 -0.037373 -0.532801 -0.606452 0.407515 0.306134 0.557587 -1.153922 -0.296222 -0.208754 0.425035 0.370382
egg_whites -0.336516 -0.435819 -0.902891 -0.010516 -0.574669 -0.452105 -0.062213 0.821906 0.496397 0.037321 0.027335 -0.769368 0.043362 0.027255 -0.141776 0.073802 0.395403 0.211663 -0.468237 0.054352 0.265916 0.737224 0.162521 0.178212 0.397647 -0.602906 -0.060405 0.589234 -0.401039 -1.128113 0.512693 -0.115958 -0.580409 -0.425288 0.656668 0.729418 0.633497 0.463534 0.528433 -0.409224 -0.440838 -0.391827 0.443923 0.488241 0.417390 0.168348 -0.045500 -0.219480 1.241564 0.016774
cheese -0.263917 0.679364 -0.072189 -0.211313 0.306466 -0.609263 0.327688 0.334769 0.722863 0.247820 0.539321 -0.213008 -0.264838 -0.062769 -0.315265 -0.061868 0.237324 -0.701001 0.049016 -0.074987 0.287982 -0.979372 -0.343365 0.173064 -0.003255 0.154529 0.484793 0.140327 0.555743 0.789790 -0.179692 -1.059227 1.152441 -0.304405 0.164355 0.486084 0.880797 0.296330 0.198447 0.758913 -0.164077 -0.749677 -0.454642 0.487588 0.653525 0.023486 -0.257889 -0.256550 0.423532 -0.974202
fresh_rosemary -0.171149 -0.101514 -0.185088 -0.445173 0.776343 -0.216344 0.256445 0.059123 -0.294063 -0.349892 0.764129 0.587248 0.388481 -0.070583 -0.271705 1.091988 0.105711 1.000211 -0.097380 -1.034165 0.496732 -1.620835 -0.104820 -0.249816 0.931054 -0.787340 0.773746 -0.164377 0.028553 0.742797 0.825153 0.176012 0.942955 0.132064 0.096330 -0.782694 0.664073 -0.408850 -0.345734 -0.047381 -0.819252 -0.589557 -0.330078 0.205155 -0.918250 -0.358318 -0.105630 0.140495 0.711016 0.757670
oregano 0.188525 0.962368 0.167591 0.120118 0.463081 -0.688541 0.119961 -0.359207 1.409495 0.582352 0.337835 0.269617 0.108530 -0.837986 0.375493 0.201444 0.369431 -0.601994 -0.232055 0.729906 0.675461 -0.591144 0.779487 -0.055340 0.290299 0.467745 0.866437 0.619378 -0.759380 0.785786 0.215404 -0.115988 0.674449 -0.528839 -0.314834 0.845488 -0.767318 -0.776704 -0.470752 1.000530 0.187081 -0.646460 0.395718 0.526688 -0.068842 0.029226 -0.308644 -0.343667 0.885376 -0.690841
white_pepper -0.383100 0.538336 0.546734 0.599376 -1.081334 -0.526270 -0.445840 -0.149836 0.646099 0.541018 -0.065343 -0.123230 0.470982 -0.324527 0.717382 -0.279764 -0.443533 0.758939 0.240346 -0.438111 0.527318 0.308712 0.719835 0.046042 0.275719 0.005535 0.328982 0.515019 0.004967 -0.505715 0.420909 -0.485255 -0.823991 -0.764177 1.057188 0.092094 0.148761 -0.526568 0.028263 0.645339 -0.661234 -1.084995 0.447399 0.916067 -0.009805 -0.601856 -0.281341 -0.237684 0.119182 0.198009
cherry_tomatoes -0.208301 0.454858 -0.116740 -0.840619 0.498932 -0.627829 0.487884 0.184141 0.165649 -0.361337 0.647555 0.291706 0.179196 0.178837 -0.045645 0.176024 0.099305 1.194953 -0.571207 0.350232 0.338077 0.540779 -0.735477 0.249904 0.482536 -0.375767 0.696684 0.778607 0.137819 1.178723 -0.445540 -0.416264 0.996480 -0.205432 -0.364247 0.298009 0.136474 -0.135130 0.533693 0.164695 -0.231342 -0.291825 -0.497535 -0.383557 -0.245463 0.135433 -0.181471 -1.027487 -0.046815 -0.182989
leeks 0.005152 -0.089415 0.460226 0.067829 -0.054592 -0.352759 -0.128656 0.518808 0.945757 0.421166 0.093409 0.650210 -0.423845 -0.234840 0.639675 1.237452 -0.357231 0.566805 0.579691 -0.814941 0.389466 -1.183683 -0.650172 -0.395277 -0.423167 -0.267981 0.191685 0.294687 0.199124 -0.032826 0.529693 -0.079165 0.163820 0.285246 0.339973 0.173348 1.606651 -0.674376 0.165338 -0.458883 -0.557186 -0.164566 0.200297 0.441020 -0.728218 -0.366630 0.043921 0.058891 -0.046923 0.870115
ketchup -0.588071 -0.259477 -0.879250 0.251932 -0.953613 0.319422 0.598065 -0.522697 -0.058842 0.480185 -0.819018 -0.810158 0.012503 -0.784352 0.813774 -0.261552 1.008445 0.316751 -0.100315 0.233499 -0.469155 0.109580 0.238334 0.852531 0.571088 -0.041659 0.902516 0.990193 -0.025229 0.278929 0.150803 -0.046116 -0.596926 -0.974888 0.901653 0.748529 0.193906 -0.980865 -0.414847 0.343910 0.100034 0.201795 0.086067 0.317956 -0.018134 -0.832692 -0.987087 0.562898 0.313642 0.333671
hoisin_sauce 0.428250 0.148163 0.867530 0.782876 -1.114210 0.123433 -0.398643 -0.397684 -0.927966 0.118472 -0.137538 -0.323746 0.091410 -0.370606 0.903526 -1.009575 -0.611488 0.337860 0.534348 -0.332540 -0.191894 0.738154 0.150786 0.686603 0.544427 -0.065143 1.041065 0.660713 -0.668862 0.626141 -0.530387 0.038614 -0.806782 -0.895907 1.118082 -0.458176 0.218091 -0.030599 0.203288 0.677609 -0.183320 -0.281603 -0.516681 0.393122 0.487542 -0.991369 -1.184635 0.012457 0.768397 0.315905
chopped_celery -0.800688 0.156506 -0.107490 0.253914 1.328906 -0.293288 -0.110871 0.733621 -0.168935 0.659130 -0.031620 0.410040 0.117563 -0.356618 0.123995 0.249273 0.434435 0.722346 0.260154 -0.157474 -0.415285 -1.015192 1.684313 -1.233696 0.712551 -0.197516 0.214062 -0.452785 0.264623 0.186744 0.396856 -0.397613 -0.195596 -0.359470 0.133850 -0.049867 1.220787 -1.366692 -0.120413 -0.426440 -0.035540 -0.314350 0.682623 0.333665 -0.337205 -0.976704 -0.532654 -0.023837 0.252965 0.446026
low_sodium_soy_sauce 0.261747 0.283716 0.634845 0.312051 -0.442851 0.007642 -0.500827 -0.234672 -1.399865 0.605225 -0.507321 0.411536 -0.483603 0.462254 0.727512 -0.018750 0.352804 0.691532 0.073393 -0.006252 0.621601 1.130925 -0.358122 0.699273 -0.023436 -0.446689 1.400379 0.819851 0.092705 0.286897 0.158832 0.200594 -1.536263 -0.777121 0.817368 -0.192531 1.001917 -0.633265 0.971127 0.308336 0.366555 -0.433072 -0.205377 -0.776379 0.397234 -0.581403 -1.252492 0.482868 0.351041 0.591095
cheddar_cheese -0.606512 0.351492 -0.400689 0.072550 -0.240741 -0.839632 0.575131 -0.166407 1.300345 0.498546 -0.069735 0.072417 -0.458442 -0.472943 -0.422374 0.659747 0.590461 -0.682139 0.205599 0.248807 0.283205 -0.507579 -0.127633 0.011177 -0.606224 0.428117 0.320915 0.031912 0.749485 0.919590 -0.185404 -0.935473 0.045993 -0.134444 0.239304 0.889850 0.408652 0.924104 -0.440512 0.739955 -0.045961 0.222066 -0.313298 0.519095 0.902074 -0.783952 -0.116635 0.190341 -0.013182 -1.032106
